{"learner":{"attributes":{"scikit_learn":"{\"_estimator_type\": \"classifier\"}"},"feature_names":["loan_amnt","term","int_rate","installment","grade","emp_length","annual_inc","dti","delinq_2yrs","inq_last_6mths","mths_since_last_delinq","mths_since_last_record","open_acc","pub_rec","revol_util","total_acc","collections_12_mths_ex_med","application_type","acc_now_delinq","bc_util","mort_acc","num_actv_bc_tl","num_actv_rev_tl","num_op_rev_tl","num_rev_tl_bal_gt_0","num_tl_op_past_12m","pct_tl_nvr_dlq","percent_bc_gt_75","pub_rec_bankruptcies","tax_liens","fico_mean","credit_history_years","revol_bal_log","total_rev_hi_lim_log","avg_cur_bal_log","revol_util_missing","bc_util_missing","percent_bc_gt_75_missing","home_ownership_OTHER","home_ownership_OWN","home_ownership_RENT","verification_status_Source_Verified","verification_status_Verified"],"feature_types":["float","int","float","float","int","float","float","float","float","float","float","float","float","float","float","float","float","int","float","float","float","float","float","float","float","float","float","float","float","float","float","float","float","float","float","int","int","int","int","int","int","int","int"],"gradient_booster":{"model":{"cats":{"enc":[],"feature_segments":[],"sorted_idx":[]},"gbtree_model_param":{"num_parallel_tree":"1","num_trees":"300"},"iteration_indptr":[0,1,2,3,4,5,6,7,8,9,10,11,12,13,14,15,16,17,18,19,20,21,22,23,24,25,26,27,28,29,30,31,32,33,34,35,36,37,38,39,40,41,42,43,44,45,46,47,48,49,50,51,52,53,54,55,56,57,58,59,60,61,62,63,64,65,66,67,68,69,70,71,72,73,74,75,76,77,78,79,80,81,82,83,84,85,86,87,88,89,90,91,92,93,94,95,96,97,98,99,100,101,102,103,104,105,106,107,108,109,110,111,112,113,114,115,116,117,118,119,120,121,122,123,124,125,126,127,128,129,130,131,132,133,134,135,136,137,138,139,140,141,142,143,144,145,146,147,148,149,150,151,152,153,154,155,156,157,158,159,160,161,162,163,164,165,166,167,168,169,170,171,172,173,174,175,176,177,178,179,180,181,182,183,184,185,186,187,188,189,190,191,192,193,194,195,196,197,198,199,200,201,202,203,204,205,206,207,208,209,210,211,212,213,214,215,216,217,218,219,220,221,222,223,224,225,226,227,228,229,230,231,232,233,234,235,236,237,238,239,240,241,242,243,244,245,246,247,248,249,250,251,252,253,254,255,256,257,258,259,260,261,262,263,264,265,266,267,268,269,270,271,272,273,274,275,276,277,278,279,280,281,282,283,284,285,286,287,288,289,290,291,292,293,294,295,296,297,298,299,300],"tree_info":[0,0,0,0,0,0,0,0,0,0,0,0,0,0,0,0,0,0,0,0,0,0,0,0,0,0,0,0,0,0,0,0,0,0,0,0,0,0,0,0,0,0,0,0,0,0,0,0,0,0,0,0,0,0,0,0,0,0,0,0,0,0,0,0,0,0,0,0,0,0,0,0,0,0,0,0,0,0,0,0,0,0,0,0,0,0,0,0,0,0,0,0,0,0,0,0,0,0,0,0,0,0,0,0,0,0,0,0,0,0,0,0,0,0,0,0,0,0,0,0,0,0,0,0,0,0,0,0,0,0,0,0,0,0,0,0,0,0,0,0,0,0,0,0,0,0,0,0,0,0,0,0,0,0,0,0,0,0,0,0,0,0,0,0,0,0,0,0,0,0,0,0,0,0,0,0,0,0,0,0,0,0,0,0,0,0,0,0,0,0,0,0,0,0,0,0,0,0,0,0,0,0,0,0,0,0,0,0,0,0,0,0,0,0,0,0,0,0,0,0,0,0,0,0,0,0,0,0,0,0,0,0,0,0,0,0,0,0,0,0,0,0,0,0,0,0,0,0,0,0,0,0,0,0,0,0,0,0,0,0,0,0,0,0,0,0,0,0,0,0,0,0,0,0,0,0,0,0,0,0,0,0,0,0,0,0,0,0,0,0,0,0,0,0,0,0,0,0,0,0],"trees":[{"base_weights":[-3.2625606E-4,-7.1167946E-1,4.502752E-1,-1.1752964E0,-4.777069E-1,1.3628383E-1,7.299428E-1,-1.4190098E0,-1.037178E0,-3.8981378E-1,-6.8487006E-1,1.8935592E-1,-1.6644612E-1,5.475305E-1,9.525469E-1,-6.211847E-2,-7.546746E-2,-4.9143557E-2,-6.348234E-2,-2.5323171E-2,-1.3320445E-2,-4.023233E-2,-2.9707938E-2,2.6222278E-4,1.4456347E-2,-2.9382063E-2,-5.453619E-3,1.374125E-2,3.2746222E-2,2.4127426E-2,5.0245043E-2],"categories":[],"categories_nodes":[],"categories_segments":[],"categories_sizes":[],"default_left":[0,0,0,0,0,0,0,0,0,0,0,0,0,0,0,0,0,0,0,0,0,0,0,0,0,0,0,0,0,0,0],"id":0,"left_children":[1,3,5,7,9,11,13,15,17,19,21,23,25,27,29,-1,-1,-1,-1,-1,-1,-1,-1,-1,-1,-1,-1,-1,-1,-1,-1],"loss_changes":[1.110224E5,1.4569469E4,1.8620281E4,1.5149727E3,1.6251738E3,1.6049795E3,4.553508E3,2.58125E2,3.618086E2,9.021494E2,2.8843457E2,1.5612534E3,3.6002423E2,1.8051621E3,1.2423867E3,0E0,0E0,0E0,0E0,0E0,0E0,0E0,0E0,0E0,0E0,0E0,0E0,0E0,0E0,0E0,0E0],"parents":[2147483647,0,0,1,1,2,2,3,3,4,4,5,5,6,6,7,7,8,8,9,9,10,10,11,11,12,12,13,13,14,14],"right_children":[2,4,6,8,10,12,14,16,18,20,22,24,26,28,30,-1,-1,-1,-1,-1,-1,-1,-1,-1,-1,-1,-1,-1,-1,-1,-1],"split_conditions":[3E0,2E0,4E0,6.92E0,9.550448E0,1.0010681E1,5E0,7.22E2,1.0105122E1,2E0,1.049E1,9.7E3,2.2228E2,9.7E3,2.493E2,-6.211847E-2,-7.546746E-2,-4.9143557E-2,-6.348234E-2,-2.5323171E-2,-1.3320445E-2,-4.023233E-2,-2.9707938E-2,2.6222278E-4,1.4456347E-2,-2.9382063E-2,-5.453619E-3,1.374125E-2,3.2746222E-2,2.4127426E-2,5.0245043E-2],"split_indices":[4,4,4,2,34,34,4,30,34,25,2,0,3,0,3,0,0,0,0,0,0,0,0,0,0,0,0,0,0,0,0],"split_type":[0,0,0,0,0,0,0,0,0,0,0,0,0,0,0,0,0,0,0,0,0,0,0,0,0,0,0,0,0,0,0],"sum_hessian":[3.46362E5,1.3431761E5,2.1204439E5,4.504897E4,8.926864E4,9.989297E4,1.1215143E5,1.6292021E4,2.8756945E4,6.267878E4,2.658986E4,8.499306E4,1.4899901E4,6.164229E4,5.0509137E4,5.5178037E3,1.0774218E4,2.331546E4,5.441484E3,3.2219697E4,3.0459082E4,1.1455702E4,1.5134157E4,2.9871332E4,5.5121734E4,1.7851827E3,1.3114719E4,1.7417523E4,4.4224766E4,5.063412E3,4.5445723E4],"tree_param":{"num_deleted":"0","num_feature":"43","num_nodes":"31","size_leaf_vector":"1"}},{"base_weights":[8.113523E-4,-6.300903E-1,4.21487E-1,-1.0403363E0,-3.7415385E-1,1.4528887E-1,7.223326E-1,-1.2852994E0,-8.586386E-1,-2.897033E-1,-5.803001E-1,1.2456489E-2,3.011633E-1,3.6561683E-1,8.1525517E-1,-5.5283785E-2,-7.032613E-2,-4.8958804E-2,-3.633332E-2,-2.3237523E-2,-9.610939E-3,-3.6736675E-2,-2.3165768E-2,-7.699703E-3,4.7233887E-3,1.8451756E-2,4.033986E-3,9.4447015E-3,2.5304133E-2,3.651045E-2,5.3779412E-2],"categories":[],"categories_nodes":[],"categories_segments":[],"categories_sizes":[],"default_left":[0,0,0,0,0,0,0,0,0,0,0,0,0,0,0,0,0,0,0,0,0,0,0,0,0,0,0,0,0,0,0],"id":1,"left_children":[1,3,5,7,9,11,13,15,17,19,21,23,25,27,29,-1,-1,-1,-1,-1,-1,-1,-1,-1,-1,-1,-1,-1,-1,-1,-1],"loss_changes":[9.201012E4,1.4561207E4,1.728259E4,2.3703672E3,1.4866914E3,2.2452517E3,3.2996016E3,4.9246094E2,4.8595703E2,1.0338179E3,4.480498E2,7.992438E2,7.4658887E2,5.106648E2,1.7478438E3,0E0,0E0,0E0,0E0,0E0,0E0,0E0,0E0,0E0,0E0,0E0,0E0,0E0,0E0,0E0,0E0],"parents":[2147483647,0,0,1,1,2,2,3,3,4,4,5,5,6,6,7,7,8,8,9,9,10,10,11,11,12,12,13,13,14,14],"right_children":[2,4,6,8,10,12,14,16,18,20,22,24,26,28,30,-1,-1,-1,-1,-1,-1,-1,-1,-1,-1,-1,-1,-1,-1,-1,-1],"split_conditions":[1.259E1,8.99E0,1.655E1,7.39E0,9.550448E0,1.982E1,9.5E3,7.22E2,1.656E1,1.075E1,1.532E1,9.7E3,9.57651E0,1.834E1,2.199E1,-5.5283785E-2,-7.032613E-2,-4.8958804E-2,-3.633332E-2,-2.3237523E-2,-9.610939E-3,-3.6736675E-2,-2.3165768E-2,-7.699703E-3,4.7233887E-3,1.8451756E-2,4.033986E-3,9.4447015E-3,2.5304133E-2,3.651045E-2,5.3779412E-2],"split_indices":[2,2,2,2,34,7,0,30,7,2,7,0,34,7,2,0,0,0,0,0,0,0,0,0,0,0,0,0,0,0,0],"split_type":[0,0,0,0,0,0,0,0,0,0,0,0,0,0,0,0,0,0,0,0,0,0,0,0,0,0,0,0,0,0,0],"sum_hessian":[3.466762E5,1.3868503E5,2.0799117E5,5.3279348E4,8.540569E4,1.0843835E5,9.955281E4,2.2686947E4,3.0592398E4,6.0587586E4,2.4818102E4,5.8547062E4,4.9891293E4,2.057467E4,7.897815E4,9.145549E3,1.3541399E4,1.59855205E4,1.4606878E4,2.1670822E4,3.891676E4,1.0694649E4,1.4123453E4,1.9324691E4,3.922237E4,3.8147586E4,1.1743707E4,9.112455E3,1.1462215E4,5.953343E4,1.9444715E4],"tree_param":{"num_deleted":"0","num_feature":"43","num_nodes":"31","size_leaf_vector":"1"}},{"base_weights":[5.362104E-4,-6.4248866E-1,4.0843356E-1,-1.0658227E0,-4.290242E-1,1.6155581E-1,7.306144E-1,-1.296523E0,-9.352809E-1,-4.922264E-1,-1.2706508E-2,-3.7170262E-3,3.92506E-1,4.2535377E-1,8.7818813E-1,-5.615554E-2,-6.930906E-2,-4.985795E-2,-3.7876997E-2,-2.9776027E-2,-1.8034425E-2,4.9281693E-3,-1.7123176E-2,4.287521E-3,-9.702448E-3,1.5666649E-2,3.328355E-2,3.002905E-2,1.2362368E-2,3.7865113E-2,5.2940764E-2],"categories":[],"categories_nodes":[],"categories_segments":[],"categories_sizes":[],"default_left":[0,0,0,0,0,0,0,0,0,0,0,0,0,0,0,0,0,0,0,0,0,0,0,0,0,0,0,0,0,0,0],"id":2,"left_children":[1,3,5,7,9,11,13,15,17,19,21,23,25,27,29,-1,-1,-1,-1,-1,-1,-1,-1,-1,-1,-1,-1,-1,-1,-1,-1],"loss_changes":[9.084691E4,1.2147984E4,1.6856496E4,1.3559336E3,2.3515664E3,4.5799004E3,4.141453E3,2.5159375E2,3.158047E2,1.054041E3,4.3228497E2,1.1909775E3,1.0822227E3,9.3502295E2,1.3525039E3,0E0,0E0,0E0,0E0,0E0,0E0,0E0,0E0,0E0,0E0,0E0,0E0,0E0,0E0,0E0,0E0],"parents":[2147483647,0,0,1,1,2,2,3,3,4,4,5,5,6,6,7,7,8,8,9,9,10,10,11,11,12,12,13,13,14,14],"right_children":[2,4,6,8,10,12,14,16,18,20,22,24,26,28,30,-1,-1,-1,-1,-1,-1,-1,-1,-1,-1,-1,-1,-1,-1,-1,-1],"split_conditions":[3E0,2E0,6E1,6.92E0,6E1,4E0,4E0,7.22E2,7E0,1E0,7.42E2,2E0,1.999E1,2E0,1E0,-5.615554E-2,-6.930906E-2,-4.985795E-2,-3.7876997E-2,-2.9776027E-2,-1.8034425E-2,4.9281693E-3,-1.7123176E-2,4.287521E-3,-9.702448E-3,1.5666649E-2,3.328355E-2,3.002905E-2,1.2362368E-2,3.7865113E-2,5.2940764E-2],"split_indices":[4,4,1,2,1,4,4,30,22,40,30,20,2,20,40,0,0,0,0,0,0,0,0,0,0,0,0,0,0,0,0],"split_type":[0,0,0,0,0,0,0,0,0,0,0,0,0,0,0,0,0,0,0,0,0,0,0,0,0,0,0,0,0,0,0],"sum_hessian":[3.46361E5,1.3443383E5,2.1192717E5,4.506291E4,8.937092E4,1.1998652E5,9.194065E4,1.6281128E4,2.8781781E4,7.75914E4,1.1779521E4,6.993823E4,5.004829E4,2.9963709E4,6.197694E4,5.5534604E3,1.0727668E4,2.134589E4,7.4358916E3,4.3459758E4,3.413164E4,8.8081045E3,2.9714175E3,4.7575457E4,2.2362773E4,3.8803727E4,1.1244564E4,1.5102737E4,1.4860971E4,3.713157E4,2.4845371E4],"tree_param":{"num_deleted":"0","num_feature":"43","num_nodes":"31","size_leaf_vector":"1"}},{"base_weights":[2.1658036E-5,-6.117724E-1,3.8724315E-1,-1.0104487E0,-4.1146007E-1,1.5168613E-1,6.955915E-1,-1.2251588E0,-8.897014E-1,-4.7290465E-1,-1.0719054E-2,-7.743275E-3,3.746402E-1,4.0618432E-1,8.351223E-1,-5.240336E-2,-6.596082E-2,-4.999974E-2,-3.854173E-2,-1.9477492E-2,-3.4662455E-2,6.7652287E-3,-1.3172644E-2,3.5141513E-3,-1.045695E-2,1.2437426E-2,2.6489228E-2,2.7945885E-2,7.305453E-3,4.593752E-2,2.5251893E-2],"categories":[],"categories_nodes":[],"categories_segments":[],"categories_sizes":[],"default_left":[0,0,0,0,0,0,0,0,0,0,0,0,0,0,0,0,0,0,0,0,0,0,0,0,0,0,0,0,0,0,0],"id":3,"left_children":[1,3,5,7,9,11,13,15,17,19,21,23,25,27,29,-1,-1,-1,-1,-1,-1,-1,-1,-1,-1,-1,-1,-1,-1,-1,-1],"loss_changes":[8.192099E4,1.0703578E4,1.5381482E4,1.1609727E3,2.1967188E3,4.2674707E3,3.7031797E3,2.6731055E2,3.7539453E2,1.4204473E3,4.3777832E2,1.1000334E3,9.775303E2,1.185064E3,1.7076641E3,0E0,0E0,0E0,0E0,0E0,0E0,0E0,0E0,0E0,0E0,0E0,0E0,0E0,0E0,0E0,0E0],"parents":[2147483647,0,0,1,1,2,2,3,3,4,4,5,5,6,6,7,7,8,8,9,9,10,10,11,11,12,12,13,13,14,14],"right_children":[2,4,6,8,10,12,14,16,18,20,22,24,26,28,30,-1,-1,-1,-1,-1,-1,-1,-1,-1,-1,-1,-1,-1,-1,-1,-1],"split_conditions":[3E0,2E0,6E1,6.92E0,6E1,4E0,4E0,8.526153E0,1.621E1,9.550448E0,9.768927E0,9.325186E0,2.158E1,9.589666E0,9.85671E0,-5.240336E-2,-6.596082E-2,-4.999974E-2,-3.854173E-2,-1.9477492E-2,-3.4662455E-2,6.7652287E-3,-1.3172644E-2,3.5141513E-3,-1.045695E-2,1.2437426E-2,2.6489228E-2,2.7945885E-2,7.305453E-3,4.593752E-2,2.5251893E-2],"split_indices":[4,4,1,2,1,4,4,34,7,34,34,34,7,34,34,0,0,0,0,0,0,0,0,0,0,0,0,0,0,0,0],"split_type":[0,0,0,0,0,0,0,0,0,0,0,0,0,0,0,0,0,0,0,0,0,0,0,0,0,0,0,0,0,0,0],"sum_hessian":[3.458024E5,1.3403384E5,2.1176855E5,4.482192E4,8.921192E4,1.2005572E5,9.1712836E4,1.6130272E4,2.869165E4,7.735162E4,1.1860302E4,7.0000734E4,5.005498E4,2.9834865E4,6.187797E4,5.5995586E3,1.0530715E4,1.4878689E4,1.3812962E4,5.612332E4,2.1228295E4,7.517394E3,4.342907E3,5.0454074E4,1.954666E4,2.7634008E4,2.2420975E4,1.879566E4,1.1039205E4,4.93685E4,1.250947E4],"tree_param":{"num_deleted":"0","num_feature":"43","num_nodes":"31","size_leaf_vector":"1"}},{"base_weights":[1.2879431E-3,-5.861544E-1,3.7178066E-1,-9.733903E-1,-3.91958E-1,1.4641973E-1,6.6643965E-1,-1.1804038E0,-8.5726887E-1,-4.4882384E-1,-2.0324025E-2,-5.053962E-3,3.5859647E-1,3.9142E-1,7.9993373E-1,-5.0625116E-2,-6.335765E-2,-4.5107696E-2,-3.243577E-2,-1.8433107E-2,-2.9855972E-2,3.7356063E-3,-1.861496E-2,3.6643904E-3,-8.579816E-3,1.5169163E-2,3.503936E-2,2.7862785E-2,1.1131948E-2,4.5872837E-2,3.1542514E-2],"categories":[],"categories_nodes":[],"categories_segments":[],"categories_sizes":[],"default_left":[0,0,0,0,0,0,0,0,0,0,0,0,0,0,0,0,0,0,0,0,0,0,0,0,0,0,0,0,0,0,0],"id":4,"left_children":[1,3,5,7,9,11,13,15,17,19,21,23,25,27,29,-1,-1,-1,-1,-1,-1,-1,-1,-1,-1,-1,-1,-1,-1,-1,-1],"loss_changes":[7.521399E4,1.0050734E4,1.4072727E4,1.0721016E3,1.881248E3,3.859424E3,3.3715195E3,2.3233594E2,2.6716016E2,9.1756836E2,3.9523254E2,9.1417865E2,9.4483105E2,8.3996533E2,1.2280352E3,0E0,0E0,0E0,0E0,0E0,0E0,0E0,0E0,0E0,0E0,0E0,0E0,0E0,0E0,0E0,0E0],"parents":[2147483647,0,0,1,1,2,2,3,3,4,4,5,5,6,6,7,7,8,8,9,9,10,10,11,11,12,12,13,13,14,14],"right_children":[2,4,6,8,10,12,14,16,18,20,22,24,26,28,30,-1,-1,-1,-1,-1,-1,-1,-1,-1,-1,-1,-1,-1,-1,-1,-1],"split_conditions":[3E0,2E0,6E1,6.92E0,6E1,4E0,4E0,7.22E2,8E0,7.02E2,7.47E2,2E0,2.115E1,2E0,2E0,-5.0625116E-2,-6.335765E-2,-4.5107696E-2,-3.243577E-2,-1.8433107E-2,-2.9855972E-2,3.7356063E-3,-1.861496E-2,3.6643904E-3,-8.579816E-3,1.5169163E-2,3.503936E-2,2.7862785E-2,1.1131948E-2,4.5872837E-2,3.1542514E-2],"split_indices":[4,4,1,2,1,4,4,30,24,30,30,20,2,20,20,0,0,0,0,0,0,0,0,0,0,0,0,0,0,0,0],"split_type":[0,0,0,0,0,0,0,0,0,0,0,0,0,0,0,0,0,0,0,0,0,0,0,0,0,0,0,0,0,0,0],"sum_hessian":[3.4558212E5,1.3365775E5,2.1192438E5,4.4639887E4,8.901786E4,1.200836E5,9.184077E4,1.6038444E4,2.8601441E4,7.72042E4,1.1813661E4,7.006496E4,5.0018637E4,3.0013004E4,6.1827766E4,5.467964E3,1.057048E4,2.3533264E4,5.0681787E3,5.0116848E4,2.7087352E4,9.302656E3,2.5110051E3,4.7650605E4,2.2414357E4,4.3070938E4,6.9477007E3,1.5137434E4,1.4875571E4,3.647267E4,2.5355094E4],"tree_param":{"num_deleted":"0","num_feature":"43","num_nodes":"31","size_leaf_vector":"1"}},{"base_weights":[-6.089746E-4,-5.586196E-1,3.514781E-1,-9.3013734E-1,-3.7338966E-1,1.3773021E-1,6.313188E-1,-1.098005E0,-7.938767E-1,-4.2808813E-1,-1.5751483E-2,-4.200667E-3,3.366352E-1,3.7318733E-1,7.575954E-1,-5.75625E-2,-4.2279445E-2,-2.6682382E-2,-4.216717E-2,-2.757035E-2,-1.5727134E-2,-5.4425253E-3,1.2940741E-2,-5.806903E-3,6.7757145E-3,1.4242709E-2,3.465679E-2,1.2979107E-2,3.0257214E-2,3.243055E-2,4.7213834E-2],"categories":[],"categories_nodes":[],"categories_segments":[],"categories_sizes":[],"default_left":[0,0,0,0,0,0,0,0,0,0,0,0,0,0,0,0,0,0,0,0,0,0,0,0,0,0,0,0,0,0,0],"id":5,"left_children":[1,3,5,7,9,11,13,15,17,19,21,23,25,27,29,-1,-1,-1,-1,-1,-1,-1,-1,-1,-1,-1,-1,-1,-1,-1,-1],"loss_changes":[6.7639195E4,9.165211E3,1.2626127E4,1.0126914E3,1.7386602E3,3.3785747E3,2.9793281E3,2.6581836E2,3.1443945E2,1.0792402E3,3.0143353E2,1.0922991E3,9.19772E2,7.9117725E2,1.2482148E3,0E0,0E0,0E0,0E0,0E0,0E0,0E0,0E0,0E0,0E0,0E0,0E0,0E0,0E0,0E0,0E0],"parents":[2147483647,0,0,1,1,2,2,3,3,4,4,5,5,6,6,7,7,8,8,9,9,10,10,11,11,12,12,13,13,14,14],"right_children":[2,4,6,8,10,12,14,16,18,20,22,24,26,28,30,-1,-1,-1,-1,-1,-1,-1,-1,-1,-1,-1,-1,-1,-1,-1,-1],"split_conditions":[3E0,2E0,6E1,7.26E0,6E1,4E0,4E0,8E0,4.3E4,1.674E1,1E0,2.029E1,2.149E1,1E0,2.411E1,-5.75625E-2,-4.2279445E-2,-2.6682382E-2,-4.216717E-2,-2.757035E-2,-1.5727134E-2,-5.4425253E-3,1.2940741E-2,-5.806903E-3,6.7757145E-3,1.4242709E-2,3.465679E-2,1.2979107E-2,3.0257214E-2,3.243055E-2,4.7213834E-2],"split_indices":[4,4,1,2,1,4,4,22,6,7,40,7,2,40,7,0,0,0,0,0,0,0,0,0,0,0,0,0,0,0,0],"split_type":[0,0,0,0,0,0,0,0,0,0,0,0,0,0,0,0,0,0,0,0,0,0,0,0,0,0,0,0,0,0,0],"sum_hessian":[3.442733E5,1.3318788E5,2.1108544E5,4.4310266E4,8.887761E4,1.19676016E5,9.140942E4,1.984946E4,2.4460805E4,7.708739E4,1.1790217E4,6.984109E4,4.9834918E4,3.0028945E4,6.1380477E4,1.6388822E4,3.460638E3,3.9089292E3,2.0551875E4,3.695147E4,4.013592E4,8.8051875E3,2.98503E3,3.8775195E4,3.1065898E4,4.351609E4,6.3188296E3,2.015821E4,9.870736E3,3.875802E4,2.2622455E4],"tree_param":{"num_deleted":"0","num_feature":"43","num_nodes":"31","size_leaf_vector":"1"}},{"base_weights":[3.5344987E-4,-4.948333E-1,3.295182E-1,-8.846433E-1,-3.1316584E-1,1.1868834E-1,6.057451E-1,-1.0992013E0,-7.630453E-1,-3.7281957E-1,5.237063E-2,-2.2172172E-2,3.3703083E-1,7.2570646E-1,3.4228754E-1,-4.647978E-2,-5.9437037E-2,-3.9598044E-2,-1.4254768E-2,-1.4388578E-2,-2.9958654E-2,1.13453595E-2,-9.591046E-3,-8.518087E-3,4.3145753E-3,8.711253E-3,2.280618E-2,2.5958184E-2,4.166948E-2,8.61829E-3,2.7165184E-2],"categories":[],"categories_nodes":[],"categories_segments":[],"categories_sizes":[],"default_left":[0,0,0,0,0,0,0,0,0,0,0,0,0,0,0,0,0,0,0,0,0,0,0,0,0,0,0,0,0,0,0],"id":6,"left_children":[1,3,5,7,9,11,13,15,17,19,21,23,25,27,29,-1,-1,-1,-1,-1,-1,-1,-1,-1,-1,-1,-1,-1,-1,-1,-1],"loss_changes":[5.6058484E4,9.724734E3,1.2031258E4,1.1381055E3,2.0426484E3,3.603587E3,2.8260586E3,2.3867383E2,3.849004E2,1.5501445E3,5.6021545E2,1.1447697E3,8.9078516E2,1.3662129E3,9.5565625E2,0E0,0E0,0E0,0E0,0E0,0E0,0E0,0E0,0E0,0E0,0E0,0E0,0E0,0E0,0E0,0E0],"parents":[2147483647,0,0,1,1,2,2,3,3,4,4,5,5,6,6,7,7,8,8,9,9,10,10,11,11,12,12,13,13,14,14],"right_children":[2,4,6,8,10,12,14,16,18,20,22,24,26,28,30,-1,-1,-1,-1,-1,-1,-1,-1,-1,-1,-1,-1,-1,-1,-1,-1],"split_conditions":[1.259E1,8.39E0,6E1,6.92E0,6E1,1.629E1,9.589666E0,7.22E2,6E1,9.550448E0,7.22E2,1.7E1,1.825E1,1.649E1,1.786E1,-4.647978E-2,-5.9437037E-2,-3.9598044E-2,-1.4254768E-2,-1.4388578E-2,-2.9958654E-2,1.13453595E-2,-9.591046E-3,-8.518087E-3,4.3145753E-3,8.711253E-3,2.280618E-2,2.5958184E-2,4.166948E-2,8.61829E-3,2.7165184E-2],"split_indices":[2,2,1,2,1,2,34,30,1,34,30,7,7,2,2,0,0,0,0,0,0,0,0,0,0,0,0,0,0,0,0],"split_type":[0,0,0,0,0,0,0,0,0,0,0,0,0,0,0,0,0,0,0,0,0,0,0,0,0,0,0,0,0,0,0],"sum_hessian":[3.4391928E5,1.3732727E5,2.06592E5,4.3653844E4,9.3673414E4,1.1716635E5,8.942566E4,1.5788038E4,2.7865809E4,8.053112E4,1.3142297E4,7.122042E4,4.594593E4,6.1445594E4,2.798006E4,5.458991E3,1.0329047E4,2.6275504E4,1.5903037E3,5.8538613E4,2.1992504E4,7.6642935E3,5.478004E3,3.009807E4,4.112235E4,1.9411672E4,2.653426E4,2.1058996E4,4.0386598E4,1.5163771E4,1.2816289E4],"tree_param":{"num_deleted":"0","num_feature":"43","num_nodes":"31","size_leaf_vector":"1"}},{"base_weights":[-3.6703536E-4,-5.073195E-1,3.1882423E-1,-8.516819E-1,-3.376761E-1,1.2450922E-1,5.747757E-1,-1.1181072E0,-7.753229E-1,-3.8703907E-1,-1.6088767E-2,4.4745877E-2,4.0028206E-1,3.3212408E-1,6.936544E-1,-4.8519295E-2,-5.9622087E-2,-2.0470954E-2,-4.07571E-2,-2.442548E-2,-1.2801515E-2,1.0600079E-2,-6.816634E-3,-4.7960873E-3,7.2004045E-3,1.2358463E-2,2.7322968E-2,2.3961268E-2,8.631498E-3,2.9355014E-2,4.3296363E-2],"categories":[],"categories_nodes":[],"categories_segments":[],"categories_sizes":[],"default_left":[0,0,0,0,0,0,0,0,0,0,0,0,0,0,0,0,0,0,0,0,0,0,0,0,0,0,0,0,0,0,0],"id":7,"left_children":[1,3,5,7,9,11,13,15,17,19,21,23,25,27,29,-1,-1,-1,-1,-1,-1,-1,-1,-1,-1,-1,-1,-1,-1,-1,-1],"loss_changes":[5.547265E4,7.7373594E3,1.0462447E4,8.8844336E2,1.4086729E3,2.6303706E3,2.6185234E3,1.0574609E2,4.9474414E2,1.02254395E3,3.2392508E2,1.2951517E3,6.0031104E2,7.003335E2,1.1179688E3,0E0,0E0,0E0,0E0,0E0,0E0,0E0,0E0,0E0,0E0,0E0,0E0,0E0,0E0,0E0,0E0],"parents":[2147483647,0,0,1,1,2,2,3,3,4,4,5,5,6,6,7,7,8,8,9,9,10,10,11,11,12,12,13,13,14,14],"right_children":[2,4,6,8,10,12,14,16,18,20,22,24,26,28,30,-1,-1,-1,-1,-1,-1,-1,-1,-1,-1,-1,-1,-1,-1,-1,-1],"split_conditions":[3E0,2E0,6E1,6.49E0,6E1,1.786E1,4E0,7.27E2,3.8E4,1.862E1,7.07E2,1.709E1,2.029E1,7.1E4,2.376E1,-4.8519295E-2,-5.9622087E-2,-2.0470954E-2,-4.07571E-2,-2.442548E-2,-1.2801515E-2,1.0600079E-2,-6.816634E-3,-4.7960873E-3,7.2004045E-3,1.2358463E-2,2.7322968E-2,2.3961268E-2,8.631498E-3,2.9355014E-2,4.3296363E-2],"split_indices":[4,4,1,2,1,2,4,30,6,7,30,7,7,6,7,0,0,0,0,0,0,0,0,0,0,0,0,0,0,0,0],"split_type":[0,0,0,0,0,0,0,0,0,0,0,0,0,0,0,0,0,0,0,0,0,0,0,0,0,0,0,0,0,0,0],"sum_hessian":[3.428137E5,1.3245025E5,2.1036342E5,4.3712797E4,8.8737445E4,1.1958077E5,9.078266E4,9.734463E3,3.3978336E4,7.692883E4,1.1808618E4,9.275413E4,2.6826643E4,2.9852479E4,6.093018E4,3.2633748E3,6.471088E3,3.335857E3,3.0642479E4,4.335008E4,3.357875E4,4.0760354E3,7.732583E3,3.8373652E4,5.4380477E4,1.3103808E4,1.3722835E4,1.5528528E4,1.4323949E4,3.764834E4,2.3281838E4],"tree_param":{"num_deleted":"0","num_feature":"43","num_nodes":"31","size_leaf_vector":"1"}},{"base_weights":[1.2639738E-4,-4.834821E-1,3.0395412E-1,-8.094586E-1,-3.2376447E-1,1.1882915E-1,5.490807E-1,-7.20113E-1,-1.00869E0,-3.6922988E-1,-2.64823E-2,-6.1192005E-3,2.9437244E-1,6.620626E-1,3.0376622E-1,-2.8129686E-2,-4.0621962E-2,-3.0865876E-2,-5.386585E-2,-1.4401905E-2,-2.7883513E-2,5.618633E-3,-1.1852333E-2,-5.039512E-3,6.585341E-3,1.0785145E-2,2.450542E-2,2.2371558E-2,3.7763253E-2,8.8253645E-3,2.7684692E-2],"categories":[],"categories_nodes":[],"categories_segments":[],"categories_sizes":[],"default_left":[0,0,0,0,0,0,0,0,0,0,0,0,0,0,0,0,0,0,0,0,0,0,0,0,0,0,0,0,0,0,0],"id":8,"left_children":[1,3,5,7,9,11,13,15,17,19,21,23,25,27,29,-1,-1,-1,-1,-1,-1,-1,-1,-1,-1,-1,-1,-1,-1,-1,-1],"loss_changes":[5.026159E4,6.871465E3,9.533357E3,7.718496E2,1.1973047E3,2.6253127E3,2.5051367E3,4.3537207E2,3.6018652E2,1.1753828E3,3.4362506E2,9.12386E2,7.6626953E2,1.2376895E3,9.065354E2,0E0,0E0,0E0,0E0,0E0,0E0,0E0,0E0,0E0,0E0,0E0,0E0,0E0,0E0,0E0,0E0],"parents":[2147483647,0,0,1,1,2,2,3,3,4,4,5,5,6,6,7,7,8,8,9,9,10,10,11,11,12,12,13,13,14,14],"right_children":[2,4,6,8,10,12,14,16,18,20,22,24,26,28,30,-1,-1,-1,-1,-1,-1,-1,-1,-1,-1,-1,-1,-1,-1,-1,-1],"split_conditions":[3E0,2E0,6E1,7.42E2,6E1,4E0,9.589666E0,8.499844E0,4.3E4,9.441214E0,9.692828E0,3E0,5E0,4E0,5E0,-2.8129686E-2,-4.0621962E-2,-3.0865876E-2,-5.386585E-2,-1.4401905E-2,-2.7883513E-2,5.618633E-3,-1.1852333E-2,-5.039512E-3,6.585341E-3,1.0785145E-2,2.450542E-2,2.2371558E-2,3.7763253E-2,8.8253645E-3,2.7684692E-2],"split_indices":[4,4,1,30,1,4,34,34,6,34,34,25,4,4,4,0,0,0,0,0,0,0,0,0,0,0,0,0,0,0,0],"split_type":[0,0,0,0,0,0,0,0,0,0,0,0,0,0,0,0,0,0,0,0,0,0,0,0,0,0,0,0,0,0,0],"sum_hessian":[3.420679E5,1.319847E5,2.100832E5,4.3401043E4,8.8583664E4,1.1969124E5,9.039196E4,2.9966936E4,1.3434107E4,7.683285E4,1.1750814E4,6.9922625E4,4.9768617E4,6.1887434E4,2.850453E4,1.1076402E4,1.8890533E4,2.0057188E3,1.1428389E4,5.369867E4,2.313418E4,7.081466E3,4.6693486E3,4.145082E4,2.8471803E4,3.5501906E4,1.4266712E4,1.873933E4,4.31481E4,1.8888518E4,9.616011E3],"tree_param":{"num_deleted":"0","num_feature":"43","num_nodes":"31","size_leaf_vector":"1"}},{"base_weights":[3.1408202E-4,-4.6080753E-1,2.8982416E-1,-7.8018713E-1,-3.0587694E-1,1.1397608E-1,5.2325255E-1,-6.5230703E-1,-9.030829E-1,-2.322092E-1,-4.8090008E-1,-1.2104412E-3,2.7655223E-1,6.1567456E-1,2.4859588E-1,-3.6587965E-2,-2.3860918E-2,-3.8466368E-2,-5.1906105E-2,-1.3660575E-2,6.0778847E-3,-2.7779236E-2,-9.564141E-3,3.2149733E-3,-1.0803396E-2,8.2850065E-3,2.0664046E-2,2.03395E-2,3.5465516E-2,6.0780593E-3,2.5151966E-2],"categories":[],"categories_nodes":[],"categories_segments":[],"categories_sizes":[],"default_left":[0,0,0,0,0,0,0,0,0,0,0,0,0,0,0,0,0,0,0,0,0,0,0,0,0,0,0,0,0,0,0],"id":9,"left_children":[1,3,5,7,9,11,13,15,17,19,21,23,25,27,29,-1,-1,-1,-1,-1,-1,-1,-1,-1,-1,-1,-1,-1,-1,-1,-1],"loss_changes":[4.5590426E4,6.5171816E3,8.611354E3,6.7555273E2,1.1434434E3,2.2406968E3,2.2879082E3,2.9300195E2,3.9542188E2,9.0547046E2,5.68147E2,9.857738E2,7.5199756E2,1.3188105E3,7.335471E2,0E0,0E0,0E0,0E0,0E0,0E0,0E0,0E0,0E0,0E0,0E0,0E0,0E0,0E0,0E0,0E0],"parents":[2147483647,0,0,1,1,2,2,3,3,4,4,5,5,6,6,7,7,8,8,9,9,10,10,11,11,12,12,13,13,14,14],"right_children":[2,4,6,8,10,12,14,16,18,20,22,24,26,28,30,-1,-1,-1,-1,-1,-1,-1,-1,-1,-1,-1,-1,-1,-1,-1,-1],"split_conditions":[3E0,2E0,6E1,7.22E2,9.550448E0,4E0,9.781659E0,1.982E1,9.0887375E0,6E1,6E1,9.523252E0,2.158E1,4E0,5E0,-3.6587965E-2,-2.3860918E-2,-3.8466368E-2,-5.1906105E-2,-1.3660575E-2,6.0778847E-3,-2.7779236E-2,-9.564141E-3,3.2149733E-3,-1.0803396E-2,8.2850065E-3,2.0664046E-2,2.03395E-2,3.5465516E-2,6.0780593E-3,2.5151966E-2],"split_indices":[4,4,1,30,34,4,34,7,34,1,1,34,7,4,4,0,0,0,0,0,0,0,0,0,0,0,0,0,0,0,0],"split_type":[0,0,0,0,0,0,0,0,0,0,0,0,0,0,0,0,0,0,0,0,0,0,0,0,0,0,0,0,0,0,0],"sum_hessian":[3.4150097E5,1.317128E5,2.0978817E5,4.302188E4,8.869092E4,1.1965228E5,9.013588E4,2.1086482E4,2.1935395E4,6.2420348E4,2.6270574E4,7.003377E4,4.961851E4,6.744081E4,2.2695074E4,1.4502375E4,6.5841074E3,1.10234375E4,1.0911957E4,5.593733E4,6.483022E3,2.088418E4,5.386395E3,5.3670402E4,1.636337E4,2.7403482E4,2.2215027E4,2.0875855E4,4.6564953E4,1.5138453E4,7.556622E3],"tree_param":{"num_deleted":"0","num_feature":"43","num_nodes":"31","size_leaf_vector":"1"}},{"base_weights":[1.0016403E-3,-4.071398E-1,2.706214E-1,-7.4380183E-1,-2.538223E-1,9.863802E-2,4.992044E-1,-1.0117481E0,-6.663435E-1,-4.046227E-1,-1.6186035E-1,-1.8766133E-2,2.811312E-1,6.1764216E-1,2.9839936E-1,-4.2844173E-2,-5.4691203E-2,-3.6148433E-2,-2.1164592E-2,-2.4066515E-2,-1.0837308E-2,-1.0570781E-2,5.3505544E-3,-5.643122E-3,6.174059E-3,1.1607202E-2,2.9555157E-2,2.181623E-2,3.687277E-2,7.85236E-3,2.332711E-2],"categories":[],"categories_nodes":[],"categories_segments":[],"categories_sizes":[],"default_left":[0,0,0,0,0,0,0,0,0,0,0,0,0,0,0,0,0,0,0,0,0,0,0,0,0,0,0,0,0,0,0],"id":10,"left_children":[1,3,5,7,9,11,13,15,17,19,21,23,25,27,29,-1,-1,-1,-1,-1,-1,-1,-1,-1,-1,-1,-1,-1,-1,-1,-1],"loss_changes":[3.7439207E4,6.985754E3,8.0542666E3,8.782754E2,1.2895889E3,2.5049746E3,2.091873E3,1.1975195E2,4.5187695E2,5.0757812E2,7.697389E2,9.5230273E2,6.9486865E2,1.2016641E3,7.7561035E2,0E0,0E0,0E0,0E0,0E0,0E0,0E0,0E0,0E0,0E0,0E0,0E0,0E0,0E0,0E0,0E0],"parents":[2147483647,0,0,1,1,2,2,3,3,4,4,5,5,6,6,7,7,8,8,9,9,10,10,11,11,12,12,13,13,14,14],"right_children":[2,4,6,8,10,12,14,16,18,20,22,24,26,28,30,-1,-1,-1,-1,-1,-1,-1,-1,-1,-1,-1,-1,-1,-1,-1,-1],"split_conditions":[1.259E1,8.39E0,6E1,6.49E0,1.049E1,1.629E1,9.413118E0,7.27E2,8E0,7E0,6E1,3E0,2.149E1,2E0,1.786E1,-4.2844173E-2,-5.4691203E-2,-3.6148433E-2,-2.1164592E-2,-2.4066515E-2,-1.0837308E-2,-1.0570781E-2,5.3505544E-3,-5.643122E-3,6.174059E-3,1.1607202E-2,2.9555157E-2,2.181623E-2,3.687277E-2,7.85236E-3,2.332711E-2],"split_indices":[2,2,1,2,2,2,34,30,24,24,1,25,2,25,2,0,0,0,0,0,0,0,0,0,0,0,0,0,0,0,0],"split_type":[0,0,0,0,0,0,0,0,0,0,0,0,0,0,0,0,0,0,0,0,0,0,0,0,0,0,0,0,0,0,0],"sum_hessian":[3.4022144E5,1.3534306E5,2.0487836E5,4.234845E4,9.299462E4,1.16914555E5,8.7963805E4,9.494097E3,3.285435E4,3.522644E4,5.776817E4,7.114526E4,4.57693E4,5.5328293E4,3.2635516E4,3.2927083E3,6.201388E3,2.664479E4,6.2095615E3,2.5012568E4,1.0213875E4,4.877816E4,8.990013E3,4.2820074E4,2.8325184E4,3.952467E4,6.24463E3,2.2015742E4,3.331255E4,1.7731312E4,1.4904202E4],"tree_param":{"num_deleted":"0","num_feature":"43","num_nodes":"31","size_leaf_vector":"1"}},{"base_weights":[1.0476888E-3,-1.7629713E-1,4.1074517E-1,-2.7502358E-2,-4.7871098E-1,5.2557534E-1,1.1953771E-1,-1.481372E-1,1.6441041E-1,-2.6047277E-1,-5.90654E-1,4.1268098E-1,7.4230033E-1,5.9836083E-3,3.9754122E-1,2.8352689E-3,-1.3306394E-2,1.3300664E-2,-3.5153066E-3,-1.743467E-2,1.453747E-4,-3.4978103E-2,-1.7297119E-2,2.4693146E-2,8.938715E-3,4.2334195E-2,2.8479213E-2,-7.5686476E-3,9.205652E-3,1.1108468E-2,2.9202698E-2],"categories":[],"categories_nodes":[],"categories_segments":[],"categories_sizes":[],"default_left":[0,0,0,0,0,0,0,0,0,0,0,0,0,0,0,0,0,0,0,0,0,0,0,0,0,0,0,0,0,0,0],"id":11,"left_children":[1,3,5,7,9,11,13,15,17,19,21,23,25,27,29,-1,-1,-1,-1,-1,-1,-1,-1,-1,-1,-1,-1,-1,-1,-1,-1],"loss_changes":[2.4650922E4,1.0654527E4,3.427293E3,3.6741086E3,1.9074258E3,1.7982168E3,9.150852E2,2.3552297E3,1.4607893E3,6.151531E2,1.3751992E3,9.1772363E2,4.5339355E2,5.7693536E2,2.748396E2,0E0,0E0,0E0,0E0,0E0,0E0,0E0,0E0,0E0,0E0,0E0,0E0,0E0,0E0,0E0,0E0],"parents":[2147483647,0,0,1,1,2,2,3,3,4,4,5,5,6,6,7,7,8,8,9,9,10,10,11,11,12,12,13,13,14,14],"right_children":[2,4,6,8,10,12,14,16,18,20,22,24,26,28,30,-1,-1,-1,-1,-1,-1,-1,-1,-1,-1,-1,-1,-1,-1,-1,-1],"split_conditions":[6E1,7.02E2,7.07E2,3E0,5.1E4,2.364E1,1E0,4.59E4,9.294406E0,3E0,3E0,9.85671E0,9.233862E0,1.963E1,2E0,2.8352689E-3,-1.3306394E-2,1.3300664E-2,-3.5153066E-3,-1.743467E-2,1.453747E-4,-3.4978103E-2,-1.7297119E-2,2.4693146E-2,8.938715E-3,4.2334195E-2,2.8479213E-2,-7.5686476E-3,9.205652E-3,1.1108468E-2,2.9202698E-2],"split_indices":[1,30,30,25,6,7,40,6,34,25,25,34,34,7,25,0,0,0,0,0,0,0,0,0,0,0,0,0,0,0,0],"split_type":[0,0,0,0,0,0,0,0,0,0,0,0,0,0,0,0,0,0,0,0,0,0,0,0,0,0,0,0,0,0,0],"sum_hessian":[3.3927262E5,2.3677916E5,1.02493484E5,1.5869738E5,7.808177E4,7.350706E4,2.898642E4,9.7444664E4,6.125271E4,2.6473586E4,5.1608188E4,4.833287E4,2.5174195E4,2.0580906E4,8.405514E3,3.5614746E4,6.182992E4,4.2748035E4,1.8504676E4,1.9830822E4,6.6427627E3,3.571258E4,1.5895608E4,3.587918E4,1.245369E4,1.5688634E4,9.485562E3,1.0927705E4,9.653201E3,4.3332705E3,4.0722432E3],"tree_param":{"num_deleted":"0","num_feature":"43","num_nodes":"31","size_leaf_vector":"1"}},{"base_weights":[3.548904E-4,-3.3234632E-1,2.840805E-1,-5.978986E-1,-1.4577337E-1,1.4786983E-1,5.0248116E-1,-8.3821607E-1,-4.8275676E-1,-2.6222363E-1,-3.7113152E-2,4.252582E-2,2.8601056E-1,1.2961146E-1,5.492187E-1,-3.598312E-2,-4.814483E-2,-3.0899053E-2,-1.9127537E-2,-9.79188E-3,-2.1534845E-2,-6.966734E-3,5.102022E-3,4.3156506E-3,-1.0343954E-2,9.257684E-3,2.070543E-2,-5.3851698E-3,1.2383408E-2,2.4591235E-2,4.0423576E-2],"categories":[],"categories_nodes":[],"categories_segments":[],"categories_sizes":[],"default_left":[0,0,0,0,0,0,0,0,0,0,0,0,0,0,0,0,0,0,0,0,0,0,0,0,0,0,0,0,0,0,0],"id":12,"left_children":[1,3,5,7,9,11,13,15,17,19,21,23,25,27,29,-1,-1,-1,-1,-1,-1,-1,-1,-1,-1,-1,-1,-1,-1,-1,-1],"loss_changes":[3.1966922E4,7.7225156E3,5.437259E3,1.7793945E3,1.15843E3,1.6381582E3,1.2234141E3,3.072588E2,5.89041E2,4.9416187E2,6.736958E2,6.9750726E2,6.29157E2,2.1914992E2,9.278828E2,0E0,0E0,0E0,0E0,0E0,0E0,0E0,0E0,0E0,0E0,0E0,0E0,0E0,0E0,0E0,0E0],"parents":[2147483647,0,0,1,1,2,2,3,3,4,4,5,5,6,6,7,7,8,8,9,9,10,10,11,11,12,12,13,13,14,14],"right_children":[2,4,6,8,10,12,14,16,18,20,22,24,26,28,30,-1,-1,-1,-1,-1,-1,-1,-1,-1,-1,-1,-1,-1,-1,-1,-1],"split_conditions":[1.318E1,9.75E0,1.786E1,7.39E0,1.736E1,2.088E1,2.2827E2,9.2640705E0,1.479E1,9.6164055E0,1E0,1.0105122E1,1E0,1.2588E2,2.399E1,-3.598312E-2,-4.814483E-2,-3.0899053E-2,-1.9127537E-2,-9.79188E-3,-2.1534845E-2,-6.966734E-3,5.102022E-3,4.3156506E-3,-1.0343954E-2,9.257684E-3,2.070543E-2,-5.3851698E-3,1.2383408E-2,2.4591235E-2,4.0423576E-2],"split_indices":[2,2,2,2,7,7,3,34,7,34,40,34,40,3,2,0,0,0,0,0,0,0,0,0,0,0,0,0,0,0,0],"split_type":[0,0,0,0,0,0,0,0,0,0,0,0,0,0,0,0,0,0,0,0,0,0,0,0,0,0,0,0,0,0,0],"sum_hessian":[3.386455E5,1.5586984E5,1.8277566E5,6.4319984E4,9.154986E4,1.12570266E5,7.02054E4,2.0832758E4,4.3487227E4,4.4190184E4,4.7359676E4,6.3867324E4,4.8702938E4,7.8201895E3,6.238521E4,1.0682225E4,1.0150532E4,1.850724E4,2.4979986E4,3.1700807E4,1.2489378E4,2.7303016E4,2.0056658E4,5.4329523E4,9.537801E3,2.7250184E4,2.1452754E4,2.5979463E3,5.222243E3,5.1079906E4,1.1305307E4],"tree_param":{"num_deleted":"0","num_feature":"43","num_nodes":"31","size_leaf_vector":"1"}},{"base_weights":[-8.298004E-5,-3.9355442E-1,2.4572475E-1,-6.8040633E-1,-2.5825167E-1,1.5012631E-1,5.625605E-1,-6.102663E-1,-9.109706E-1,-3.9599094E-1,-1.7246203E-1,5.5854574E-2,2.8957883E-1,4.5692483E-1,7.2335535E-1,-3.531375E-2,-2.4485463E-2,-4.0324505E-2,-5.1078618E-2,-1.603035E-2,-2.555043E-2,-1.2218101E-2,-2.2844009E-3,5.7322118E-3,-6.567657E-3,2.6120362E-3,1.676338E-2,1.6874342E-3,2.466505E-2,1.3044204E-2,3.748613E-2],"categories":[],"categories_nodes":[],"categories_segments":[],"categories_sizes":[],"default_left":[0,0,0,0,0,0,0,0,0,0,0,0,0,0,0,0,0,0,0,0,0,0,0,0,0,0,0,0,0,0,0],"id":13,"left_children":[1,3,5,7,9,11,13,15,17,19,21,23,25,27,29,-1,-1,-1,-1,-1,-1,-1,-1,-1,-1,-1,-1,-1,-1,-1,-1],"loss_changes":[3.2663525E4,5.039744E3,6.295875E3,6.7249023E2,1.0425991E3,2.0992527E3,8.1804395E2,3.6904492E2,1.1133154E2,2.9345752E2,4.9561072E2,1.0486228E3,6.98397E2,4.4763135E2,2.3272363E2,0E0,0E0,0E0,0E0,0E0,0E0,0E0,0E0,0E0,0E0,0E0,0E0,0E0,0E0,0E0,0E0],"parents":[2147483647,0,0,1,1,2,2,3,3,4,4,5,5,6,6,7,7,8,8,9,9,10,10,11,11,12,12,13,13,14,14],"right_children":[2,4,6,8,10,12,14,16,18,20,22,24,26,28,30,-1,-1,-1,-1,-1,-1,-1,-1,-1,-1,-1,-1,-1,-1,-1,-1],"split_conditions":[3E0,2E0,5E0,7.52E2,1.47E1,2.169E1,2.364E1,1.709E1,2E0,2E0,7E0,3E0,2.1081E2,1.9279E2,1.836E2,-3.531375E-2,-2.4485463E-2,-4.0324505E-2,-5.1078618E-2,-1.603035E-2,-2.555043E-2,-1.2218101E-2,-2.2844009E-3,5.7322118E-3,-6.567657E-3,2.6120362E-3,1.676338E-2,1.6874342E-3,2.466505E-2,1.3044204E-2,3.748613E-2],"split_indices":[4,4,4,30,7,7,7,7,20,20,22,20,3,3,3,0,0,0,0,0,0,0,0,0,0,0,0,0,0,0,0],"split_type":[0,0,0,0,0,0,0,0,0,0,0,0,0,0,0,0,0,0,0,0,0,0,0,0,0,0,0,0,0,0,0],"sum_hessian":[3.3771606E5,1.2985417E5,2.0786189E5,4.1617645E4,8.823652E4,1.5968255E5,4.8179332E4,3.1913021E4,9.704624E3,3.3863492E4,5.4373035E4,9.527607E4,6.440648E4,2.9079273E4,1.9100059E4,1.7762518E4,1.4150503E4,4.994668E3,4.709956E3,2.0458523E4,1.3404967E4,3.4694883E4,1.9678154E4,7.250682E4,2.2769246E4,1.0397422E4,5.400906E4,2.3019414E3,2.6777332E4,1.0308136E3,1.8069246E4],"tree_param":{"num_deleted":"0","num_feature":"43","num_nodes":"31","size_leaf_vector":"1"}},{"base_weights":[-6.066562E-5,-3.7497878E-1,2.3352891E-1,-6.4757E-1,-2.4734786E-1,8.9742474E-2,4.2731977E-1,-5.145723E-1,-7.571447E-1,-2.8724194E-1,1.0138284E-2,-5.7350053E-3,2.2560616E-1,5.538813E-1,2.6708987E-1,-3.1866524E-2,-1.885344E-2,-3.2248694E-2,-4.4950005E-2,-1.0053344E-2,-2.1445455E-2,-4.1586007E-3,1.3991535E-2,-5.337315E-3,4.97056E-3,-2.8432172E-3,1.3672928E-2,1.2772173E-2,3.141713E-2,8.050004E-3,2.3362713E-2],"categories":[],"categories_nodes":[],"categories_segments":[],"categories_sizes":[],"default_left":[0,0,0,0,0,0,0,0,0,0,0,0,0,0,0,0,0,0,0,0,0,0,0,0,0,0,0,0,0,0,0],"id":14,"left_children":[1,3,5,7,9,11,13,15,17,19,21,23,25,27,29,-1,-1,-1,-1,-1,-1,-1,-1,-1,-1,-1,-1,-1,-1,-1,-1],"loss_changes":[2.9520115E4,4.5016113E3,5.786912E3,6.0094727E2,9.0531104E2,1.5465637E3,1.7937051E3,3.1443945E2,3.593789E2,9.315088E2,2.9757642E2,7.4368567E2,6.651179E2,1.0980752E3,8.289343E2,0E0,0E0,0E0,0E0,0E0,0E0,0E0,0E0,0E0,0E0,0E0,0E0,0E0,0E0,0E0,0E0],"parents":[2147483647,0,0,1,1,2,2,3,3,4,4,5,5,6,6,7,7,8,8,9,9,10,10,11,11,12,12,13,13,14,14],"right_children":[2,4,6,8,10,12,14,16,18,20,22,24,26,28,30,-1,-1,-1,-1,-1,-1,-1,-1,-1,-1,-1,-1,-1,-1,-1,-1],"split_conditions":[3E0,2E0,6E1,8.830251E0,6E1,4E0,2E0,1.568E1,7.27E2,9.0887375E0,1E0,1E0,1.5868E2,1E0,5E0,-3.1866524E-2,-1.885344E-2,-3.2248694E-2,-4.4950005E-2,-1.0053344E-2,-2.1445455E-2,-4.1586007E-3,1.3991535E-2,-5.337315E-3,4.97056E-3,-2.8432172E-3,1.3672928E-2,1.2772173E-2,3.141713E-2,8.050004E-3,2.3362713E-2],"split_indices":[4,4,1,34,1,4,20,7,30,34,40,40,3,25,4,0,0,0,0,0,0,0,0,0,0,0,0,0,0,0,0],"split_type":[0,0,0,0,0,0,0,0,0,0,0,0,0,0,0,0,0,0,0,0,0,0,0,0,0,0,0,0,0,0,0],"sum_hessian":[3.3707425E5,1.2939343E5,2.0768083E5,4.1262285E4,8.813114E4,1.1922285E5,8.8457984E4,1.8641553E4,2.2620732E4,7.630809E4,1.182305E4,7.001861E4,4.9204246E4,4.9419953E4,3.903803E4,9.846935E3,8.794619E3,1.2635151E4,9.985581E3,4.7448152E4,2.885994E4,8.784434E3,3.038616E3,3.5711477E4,3.430713E4,7.127974E3,4.207627E4,9.869174E3,3.955078E4,2.5516008E4,1.3522023E4],"tree_param":{"num_deleted":"0","num_feature":"43","num_nodes":"31","size_leaf_vector":"1"}},{"base_weights":[4.555239E-4,-3.5561627E-1,2.2213474E-1,-7.192894E-1,-2.6412988E-1,1.3336557E-1,5.189446E-1,-3.6869925E-1,-7.642635E-1,-4.0049535E-1,-1.8755293E-1,4.544888E-2,3.0338752E-1,4.1060585E-1,6.632372E-1,-1.4072756E-2,-3.532428E-2,-3.0550748E-2,-4.414371E-2,-2.2667198E-2,-9.93278E-3,-1.2704658E-2,-1.0936784E-3,5.499111E-3,-6.492503E-3,1.9457966E-2,3.5835018E-3,1.7926523E-2,3.527266E-2,1.0540969E-2,3.446074E-2],"categories":[],"categories_nodes":[],"categories_segments":[],"categories_sizes":[],"default_left":[0,0,0,0,0,0,0,0,0,0,0,0,0,0,0,0,0,0,0,0,0,0,0,0,0,0,0,0,0,0,0],"id":15,"left_children":[1,3,5,7,9,11,13,15,17,19,21,23,25,27,29,-1,-1,-1,-1,-1,-1,-1,-1,-1,-1,-1,-1,-1,-1,-1,-1],"loss_changes":[2.6492023E4,4.2843535E3,5.4498477E3,4.07833E2,1.0743926E3,2.3800818E3,7.441553E2,8.6582886E1,4.1643066E2,3.9460107E2,7.264326E2,1.1873539E3,1.0786084E3,4.174082E2,2.3984668E2,0E0,0E0,0E0,0E0,0E0,0E0,0E0,0E0,0E0,0E0,0E0,0E0,0E0,0E0,0E0,0E0],"parents":[2147483647,0,0,1,1,2,2,3,3,4,4,5,5,6,6,7,7,8,8,9,9,10,10,11,11,12,12,13,13,14,14],"right_children":[2,4,6,8,10,12,14,16,18,20,22,24,26,28,30,-1,-1,-1,-1,-1,-1,-1,-1,-1,-1,-1,-1,-1,-1,-1,-1],"split_conditions":[3E0,7.89E0,5E0,4.1E4,9.75E0,6E1,2.275E1,7.67E2,7.22E2,8E0,3E0,9.325186E0,9.806481E0,2.499E1,1.836E2,-1.4072756E-2,-3.532428E-2,-3.0550748E-2,-4.414371E-2,-2.2667198E-2,-9.93278E-3,-1.2704658E-2,-1.0936784E-3,5.499111E-3,-6.492503E-3,1.9457966E-2,3.5835018E-3,1.7926523E-2,3.527266E-2,1.0540969E-2,3.446074E-2],"split_indices":[4,2,4,6,2,1,7,30,30,22,25,34,34,2,3,0,0,0,0,0,0,0,0,0,0,0,0,0,0,0,0],"split_type":[0,0,0,0,0,0,0,0,0,0,0,0,0,0,0,0,0,0,0,0,0,0,0,0,0,0,0,0,0,0,0],"sum_hessian":[3.3562172E5,1.28775586E5,2.0684612E5,2.5882318E4,1.02893266E5,1.592265E5,4.761962E4,2.9437622E3,2.2938557E4,3.700028E4,6.5892984E4,1.0495603E5,5.4270473E4,2.7200564E4,2.0419059E4,2.340966E3,6.0279614E2,1.001065E4,1.2927905E4,2.9321623E4,7.6786562E3,4.7011617E4,1.8881367E4,7.6715055E4,2.8240979E4,3.9608457E4,1.4662018E4,2.3119465E4,4.0811E3,1.1092781E3,1.930978E4],"tree_param":{"num_deleted":"0","num_feature":"43","num_nodes":"31","size_leaf_vector":"1"}},{"base_weights":[4.6248085E-4,-3.4163463E-1,2.1233937E-1,-6.921667E-1,-2.5392663E-1,1.2932137E-1,4.9218145E-1,-5.498725E-1,-8.006639E-1,-3.5285813E-1,-1.5074404E-1,4.7043584E-2,2.8985503E-1,3.842169E-1,6.355153E-1,-1.7944615E-2,-3.198957E-2,-3.3646964E-2,-4.672302E-2,-2.2570662E-2,-1.281279E-2,-1.2210074E-2,-5.6795584E-4,4.2023594E-3,-1.1777094E-2,1.9790163E-2,4.8436094E-3,1.6651442E-2,3.372334E-2,1.0583781E-2,3.3026133E-2],"categories":[],"categories_nodes":[],"categories_segments":[],"categories_sizes":[],"default_left":[0,0,0,0,0,0,0,0,0,0,0,0,0,0,0,0,0,0,0,0,0,0,0,0,0,0,0,0,0,0,0],"id":16,"left_children":[1,3,5,7,9,11,13,15,17,19,21,23,25,27,29,-1,-1,-1,-1,-1,-1,-1,-1,-1,-1,-1,-1,-1,-1,-1,-1],"loss_changes":[2.4249793E4,3.9338428E3,4.799706E3,3.9491992E2,1.0447451E3,2.1045466E3,7.3122363E2,1.9007837E2,2.4763574E2,4.9734912E2,6.526383E2,1.1015801E3,1.1038804E3,4.0037012E2,2.1508594E2,0E0,0E0,0E0,0E0,0E0,0E0,0E0,0E0,0E0,0E0,0E0,0E0,0E0,0E0,0E0,0E0],"parents":[2147483647,0,0,1,1,2,2,3,3,4,4,5,5,6,6,7,7,8,8,9,9,10,10,11,11,12,12,13,13,14,14],"right_children":[2,4,6,8,10,12,14,16,18,20,22,24,26,28,30,-1,-1,-1,-1,-1,-1,-1,-1,-1,-1,-1,-1,-1,-1,-1,-1],"split_conditions":[3E0,7.89E0,5E0,7.22E2,1.727E1,6E1,2.275E1,8.39638E0,9.18574E0,1.049E1,1E0,1.0010681E1,9.563249E0,2.499E1,1.836E2,-1.7944615E-2,-3.198957E-2,-3.3646964E-2,-4.672302E-2,-2.2570662E-2,-1.281279E-2,-1.2210074E-2,-5.6795584E-4,4.2023594E-3,-1.1777094E-2,1.9790163E-2,4.8436094E-3,1.6651442E-2,3.372334E-2,1.0583781E-2,3.3026133E-2],"split_indices":[4,2,4,30,7,1,7,34,34,2,40,34,34,2,3,0,0,0,0,0,0,0,0,0,0,0,0,0,0,0,0],"split_type":[0,0,0,0,0,0,0,0,0,0,0,0,0,0,0,0,0,0,0,0,0,0,0,0,0,0,0,0,0,0,0],"sum_hessian":[3.345588E5,1.2795754E5,2.0660128E5,2.5607646E4,1.0234989E5,1.5933453E5,4.7266746E4,1.1080985E4,1.452666E4,5.2250082E4,5.009981E4,1.0534414E5,5.3990387E4,2.6961777E4,2.0304967E4,3.5487427E3,7.532243E3,7.435052E3,7.091609E3,2.5861809E4,2.6388271E4,2.9990477E4,2.0109332E4,9.31475E4,1.2196644E4,3.485424E4,1.9136148E4,2.292152E4,4.0402595E3,1.1318102E3,1.9173156E4],"tree_param":{"num_deleted":"0","num_feature":"43","num_nodes":"31","size_leaf_vector":"1"}},{"base_weights":[9.5445913E-4,-3.9255673E-1,1.5606953E-1,-6.6024476E-1,-2.9406193E-1,2.1048853E-2,3.5986024E-1,-8.298871E-1,-5.715864E-1,-3.3620307E-1,8.8550765E-3,-4.5914244E-2,2.0807952E-1,2.1964629E-1,4.6952975E-1,-4.343779E-2,-2.3954472E-2,-1.0054702E-2,-3.0500531E-2,-1.22224055E-2,-2.329344E-2,-8.841532E-3,8.145566E-3,-8.567175E-3,1.4335684E-3,5.9095626E-3,1.9616533E-2,4.591787E-3,1.6244166E-2,2.6944002E-2,1.1514838E-2],"categories":[],"categories_nodes":[],"categories_segments":[],"categories_sizes":[],"default_left":[0,0,0,0,0,0,0,0,0,0,0,0,0,0,0,0,0,0,0,0,0,0,0,0,0,0,0,0,0,0,0],"id":17,"left_children":[1,3,5,7,9,11,13,15,17,19,21,23,25,27,29,-1,-1,-1,-1,-1,-1,-1,-1,-1,-1,-1,-1,-1,-1,-1,-1],"loss_changes":[2.035296E4,2.4854346E3,6.5808354E3,3.8089844E2,8.797671E2,1.8016781E3,1.465501E3,1.182251E2,2.3699951E2,7.197036E2,2.408299E2,9.910047E2,6.2809045E2,5.626251E2,8.8714355E2,0E0,0E0,0E0,0E0,0E0,0E0,0E0,0E0,0E0,0E0,0E0,0E0,0E0,0E0,0E0,0E0],"parents":[2147483647,0,0,1,1,2,2,3,3,4,4,5,5,6,6,7,7,8,8,9,9,10,10,11,11,12,12,13,13,14,14],"right_children":[2,4,6,8,10,12,14,16,18,20,22,24,26,28,30,-1,-1,-1,-1,-1,-1,-1,-1,-1,-1,-1,-1,-1,-1,-1,-1],"split_conditions":[1.122E1,7.89E0,1.649E1,6.49E0,6E1,6E1,6E1,7E0,3.8E4,9.07303E0,5E0,1.559E1,1E0,1.898E1,9.806481E0,-4.343779E-2,-2.3954472E-2,-1.0054702E-2,-3.0500531E-2,-1.22224055E-2,-2.329344E-2,-8.841532E-3,8.145566E-3,-8.567175E-3,1.4335684E-3,5.9095626E-3,1.9616533E-2,4.591787E-3,1.6244166E-2,2.6944002E-2,1.1514838E-2],"split_indices":[2,2,2,2,1,1,1,21,6,34,24,7,40,7,34,0,0,0,0,0,0,0,0,0,0,0,0,0,0,0,0],"split_type":[0,0,0,0,0,0,0,0,0,0,0,0,0,0,0,0,0,0,0,0,0,0,0,0,0,0,0,0,0,0,0],"sum_hessian":[3.334371E5,9.427344E4,2.3916366E5,2.5355863E4,6.891757E4,1.4385453E5,9.5309125E4,8.700202E3,1.665566E4,6.0500734E4,8.416839E3,1.0592918E5,3.792536E4,4.1830836E4,5.3478285E4,7.8310396E3,8.691631E2,1.5656511E3,1.5090009E4,3.54314E4,2.5069334E4,3.816555E3,4.600284E3,3.9500547E4,6.642863E4,2.549102E4,1.2434339E4,1.8890346E4,2.2940492E4,4.1458727E4,1.2019557E4],"tree_param":{"num_deleted":"0","num_feature":"43","num_nodes":"31","size_leaf_vector":"1"}},{"base_weights":[7.2141096E-4,-3.7155065E-1,1.4712477E-1,-6.338116E-1,-2.7601114E-1,2.0203957E-2,3.4279898E-1,-5.5590045E-1,-8.263197E-1,-3.1405312E-1,-2.8788021E-3,-4.1914884E-2,1.9376792E-1,2.0521031E-1,4.501567E-1,-1.9164382E-2,-3.199265E-2,-2.3535421E-2,-4.4322673E-2,-1.1239986E-2,-2.2069192E-2,5.65842E-3,-1.6946165E-2,-6.3606002E-3,4.7718007E-3,1.5172891E-2,-9.864285E-5,-1.2555501E-3,1.3058296E-2,2.646765E-2,1.1981772E-2],"categories":[],"categories_nodes":[],"categories_segments":[],"categories_sizes":[],"default_left":[0,0,0,0,0,0,0,0,0,0,0,0,0,0,0,0,0,0,0,0,0,0,0,0,0,0,0,0,0,0,0],"id":18,"left_children":[1,3,5,7,9,11,13,15,17,19,21,23,25,27,29,-1,-1,-1,-1,-1,-1,-1,-1,-1,-1,-1,-1,-1,-1,-1,-1],"loss_changes":[1.8132598E4,2.3528184E3,5.9303354E3,3.7562207E2,7.152261E2,1.5616282E3,1.3876357E3,2.5847217E2,1.5402393E2,6.865498E2,3.282475E2,1.2496764E3,8.196686E2,5.307046E2,8.796924E2,0E0,0E0,0E0,0E0,0E0,0E0,0E0,0E0,0E0,0E0,0E0,0E0,0E0,0E0,0E0,0E0],"parents":[2147483647,0,0,1,1,2,2,3,3,4,4,5,5,6,6,7,7,8,8,9,9,10,10,11,11,12,12,13,13,14,14],"right_children":[2,4,6,8,10,12,14,16,18,20,22,24,26,28,30,-1,-1,-1,-1,-1,-1,-1,-1,-1,-1,-1,-1,-1,-1,-1,-1],"split_conditions":[1.122E1,7.89E0,1.655E1,7.52E2,6E1,6E1,6E1,8.371473E0,4.3E4,9.07303E0,7.47E2,3E0,7.07E2,1.836E2,3E0,-1.9164382E-2,-3.199265E-2,-2.3535421E-2,-4.4322673E-2,-1.1239986E-2,-2.2069192E-2,5.65842E-3,-1.6946165E-2,-6.3606002E-3,4.7718007E-3,1.5172891E-2,-9.864285E-5,-1.2555501E-3,1.3058296E-2,2.646765E-2,1.1981772E-2],"split_indices":[2,2,2,30,1,1,1,34,6,34,30,25,30,3,20,0,0,0,0,0,0,0,0,0,0,0,0,0,0,0,0],"split_type":[0,0,0,0,0,0,0,0,0,0,0,0,0,0,0,0,0,0,0,0,0,0,0,0,0,0,0,0,0,0,0],"sum_hessian":[3.3269475E5,9.39073E4,2.3878747E5,2.5073525E4,6.8833766E4,1.4484031E5,9.394716E4,1.7852299E4,7.221227E3,6.0418508E4,8.415263E3,1.0666536E5,3.8174957E4,4.117744E4,5.276971E4,5.8433965E3,1.2008902E4,1.045762E3,6.1754653E3,3.5521918E4,2.4896588E4,6.255646E3,2.1596167E3,6.5801586E4,4.0863773E4,2.446476E4,1.3710198E4,8.048638E3,3.3128805E4,3.834365E4,1.44260625E4],"tree_param":{"num_deleted":"0","num_feature":"43","num_nodes":"31","size_leaf_vector":"1"}},{"base_weights":[8.5656234E-4,-2.4593653E-1,2.0942679E-1,-4.530003E-1,-1.0648229E-1,1.0797077E-1,3.770981E-1,-6.749374E-1,-3.6725572E-1,-1.9403625E-1,1.2150753E-2,-1.8085174E-2,1.9512026E-1,2.37597E-1,4.841877E-1,-2.526474E-2,-3.8076337E-2,-2.1671241E-2,-1.0136417E-2,-2.5599138E-3,-1.3087253E-2,5.383476E-3,-7.8045214E-3,2.1155484E-3,-1.0395181E-2,5.718764E-3,1.7168883E-2,9.3129575E-3,2.5560414E-2,1.9374317E-2,3.0174324E-2],"categories":[],"categories_nodes":[],"categories_segments":[],"categories_sizes":[],"default_left":[0,0,0,0,0,0,0,0,0,0,0,0,0,0,0,0,0,0,0,0,0,0,0,0,0,0,0,0,0,0,0],"id":19,"left_children":[1,3,5,7,9,11,13,15,17,19,21,23,25,27,29,-1,-1,-1,-1,-1,-1,-1,-1,-1,-1,-1,-1,-1,-1,-1,-1],"loss_changes":[1.7072105E4,4.386591E3,3.0577896E3,1.1631719E3,9.4289453E2,1.2303047E3,1.012208E3,2.4986523E2,4.800244E2,5.0513E2,6.194961E2,5.248236E2,7.926094E2,4.132998E2,4.4200195E2,0E0,0E0,0E0,0E0,0E0,0E0,0E0,0E0,0E0,0E0,0E0,0E0,0E0,0E0,0E0,0E0],"parents":[2147483647,0,0,1,1,2,2,3,3,4,4,5,5,6,6,7,7,8,8,9,9,10,10,11,11,12,12,13,13,14,14],"right_children":[2,4,6,8,10,12,14,16,18,20,22,24,26,28,30,-1,-1,-1,-1,-1,-1,-1,-1,-1,-1,-1,-1,-1,-1,-1,-1],"split_conditions":[1.318E1,9.75E0,1.786E1,7.26E0,6E0,1.709E1,1.917E1,8.4344635E0,7E0,4.59E4,9.233862E0,3E0,6E1,2.399E1,1E0,-2.526474E-2,-3.8076337E-2,-2.1671241E-2,-1.0136417E-2,-2.5599138E-3,-1.3087253E-2,5.383476E-3,-7.8045214E-3,2.1155484E-3,-1.0395181E-2,5.718764E-3,1.7168883E-2,9.3129575E-3,2.5560414E-2,1.9374317E-2,3.0174324E-2],"split_indices":[2,2,2,2,24,7,7,34,22,6,34,20,1,2,40,0,0,0,0,0,0,0,0,0,0,0,0,0,0,0,0],"split_type":[0,0,0,0,0,0,0,0,0,0,0,0,0,0,0,0,0,0,0,0,0,0,0,0,0,0,0,0,0,0,0],"sum_hessian":[3.3166466E5,1.519124E5,1.7975227E5,6.113539E4,9.0777016E4,1.11990016E5,6.776225E4,1.7035268E4,4.410012E4,5.222967E4,3.8547348E4,4.5777176E4,6.6212836E4,2.9429236E4,3.833301E4,5.759098E3,1.127617E4,3.145002E4,1.2650104E4,1.6796875E4,3.5432797E4,2.4587934E4,1.3959415E4,3.472819E4,1.1048984E4,4.28677E4,2.3345139E4,2.4781205E4,4.6480317E3,2.1174004E4,1.7159006E4],"tree_param":{"num_deleted":"0","num_feature":"43","num_nodes":"31","size_leaf_vector":"1"}},{"base_weights":[2.1484718E-4,-1.2275188E-1,2.8781712E-1,-2.2427052E-1,6.092443E-2,1.9778627E-1,4.9028763E-1,-4.6087913E-3,-3.1479532E-1,1.7774235E-1,-1.1331848E-1,3.4984827E-1,8.661615E-2,5.9038925E-1,3.354334E-1,-3.7261152E-3,7.053319E-3,-1.8417086E-2,-5.6938375E-3,2.863773E-3,1.6058492E-2,-3.2081436E-3,-1.8457633E-2,1.1307151E-2,2.31954E-2,-1.001426E-3,1.2713994E-2,2.4657328E-2,3.5664324E-2,1.1532285E-2,2.3911757E-2],"categories":[],"categories_nodes":[],"categories_segments":[],"categories_sizes":[],"default_left":[0,0,0,0,0,0,0,0,0,0,0,0,0,0,0,0,0,0,0,0,0,0,0,0,0,0,0,0,0,0,0],"id":20,"left_children":[1,3,5,7,9,11,13,15,17,19,21,23,25,27,29,-1,-1,-1,-1,-1,-1,-1,-1,-1,-1,-1,-1,-1,-1,-1,-1],"loss_changes":[1.1704385E4,4.3228994E3,1.8067578E3,2.9689883E3,1.6797815E3,1.159877E3,4.7272217E2,4.4381128E2,1.1375029E3,8.535884E2,4.1650815E2,4.0875952E2,7.087489E2,2.2108496E2,1.7916809E2,0E0,0E0,0E0,0E0,0E0,0E0,0E0,0E0,0E0,0E0,0E0,0E0,0E0,0E0,0E0,0E0],"parents":[2147483647,0,0,1,1,2,2,3,3,4,4,5,5,6,6,7,7,8,8,9,9,10,10,11,11,12,12,13,13,14,14],"right_children":[2,4,6,8,10,12,14,16,18,20,22,24,26,28,30,-1,-1,-1,-1,-1,-1,-1,-1,-1,-1,-1,-1,-1,-1,-1,-1],"split_conditions":[6E1,3E0,2.423E1,4.3E4,9.024854E0,6.63E4,9.279306E0,1E0,2.376E1,2.078E1,1.0964762E1,2E0,3E0,3E0,3E0,-3.7261152E-3,7.053319E-3,-1.8417086E-2,-5.6938375E-3,2.863773E-3,1.6058492E-2,-3.2081436E-3,-1.8457633E-2,1.1307151E-2,2.31954E-2,-1.001426E-3,1.2713994E-2,2.4657328E-2,3.5664324E-2,1.1532285E-2,2.3911757E-2],"split_indices":[1,25,7,6,34,6,34,42,7,7,33,25,25,25,25,0,0,0,0,0,0,0,0,0,0,0,0,0,0,0,0],"split_type":[0,0,0,0,0,0,0,0,0,0,0,0,0,0,0,0,0,0,0,0,0,0,0,0,0,0,0,0,0,0,0],"sum_hessian":[3.3095278E5,2.3183177E5,9.912101E4,1.4930827E5,8.252351E4,6.861329E4,3.0507719E4,4.357441E4,1.0573385E5,4.94025E4,3.3121008E4,2.8976361E4,3.963693E4,1.8527967E4,1.1979753E4,2.9443941E4,1.4130468E4,8.34839E4,2.2249951E4,2.6851184E4,2.2551316E4,2.77839E4,5.3371084E3,1.3901863E4,1.5074498E4,2.422756E4,1.5409369E4,1.034638E4,8.1815864E3,6.9110503E3,5.0687026E3],"tree_param":{"num_deleted":"0","num_feature":"43","num_nodes":"31","size_leaf_vector":"1"}},{"base_weights":[-1.2320814E-3,-2.824703E-1,1.7185968E-1,-5.97892E-1,-2.073219E-1,1.0190604E-1,4.118155E-1,-5.060673E-1,-7.5661534E-1,-3.0791968E-1,-1.1479319E-1,-4.6912096E-2,1.637333E-1,3.620002E-1,6.7531353E-1,-2.9039348E-2,-1.690081E-2,-1.9341726E-2,-4.1090365E-2,-1.1288954E-2,-2.147865E-2,-9.974449E-3,5.465053E-4,1.4610732E-3,-9.26357E-3,3.544865E-3,1.4079111E-2,1.4317028E-2,2.6623929E-2,3.9124746E-2,2.8794048E-2],"categories":[],"categories_nodes":[],"categories_segments":[],"categories_sizes":[],"default_left":[0,0,0,0,0,0,0,0,0,0,0,0,0,0,0,0,0,0,0,0,0,0,0,0,0,0,0,0,0,0,0],"id":21,"left_children":[1,3,5,7,9,11,13,15,17,19,21,23,25,27,29,-1,-1,-1,-1,-1,-1,-1,-1,-1,-1,-1,-1,-1,-1,-1,-1],"loss_changes":[1.6052792E4,2.9778164E3,3.4264087E3,3.519209E2,9.4439307E2,1.4542566E3,6.0456006E2,1.9212476E2,2.1319531E2,4.8565576E2,5.627857E2,4.8868335E2,1.221638E3,4.9968848E2,7.761133E1,0E0,0E0,0E0,0E0,0E0,0E0,0E0,0E0,0E0,0E0,0E0,0E0,0E0,0E0,0E0,0E0],"parents":[2147483647,0,0,1,1,2,2,3,3,4,4,5,5,6,6,7,7,8,8,9,9,10,10,11,11,12,12,13,13,14,14],"right_children":[2,4,6,8,10,12,14,16,18,20,22,24,26,28,30,-1,-1,-1,-1,-1,-1,-1,-1,-1,-1,-1,-1,-1,-1,-1,-1],"split_conditions":[3E0,7.89E0,5E0,7.42E2,1.665E1,1.435E1,2.499E1,1.982E1,4.3E4,2E0,1E0,2E0,1E0,2.578E1,1E0,-2.9039348E-2,-1.690081E-2,-1.9341726E-2,-4.1090365E-2,-1.1288954E-2,-2.147865E-2,-9.974449E-3,5.465053E-4,1.4610732E-3,-9.26357E-3,3.544865E-3,1.4079111E-2,1.4317028E-2,2.6623929E-2,3.9124746E-2,2.8794048E-2],"split_indices":[4,2,4,30,7,7,2,7,6,20,40,20,40,7,20,0,0,0,0,0,0,0,0,0,0,0,0,0,0,0,0],"split_type":[0,0,0,0,0,0,0,0,0,0,0,0,0,0,0,0,0,0,0,0,0,0,0,0,0,0,0,0,0,0,0],"sum_hessian":[3.2975944E5,1.25632336E5,2.0412711E5,2.417119E4,1.0146115E5,1.5805206E5,4.6075043E4,1.5315212E4,8.855977E3,4.8609867E4,5.2851277E4,4.639048E4,1.11661586E5,3.8751332E4,7.323713E3,1.0599818E4,4.715394E3,1.3283373E3,7.527639E3,2.9019012E4,1.9590854E4,3.157776E4,2.127352E4,2.9924838E4,1.6465645E4,6.2460023E4,4.9201562E4,2.6841531E4,1.19098E4,3.521218E3,3.8024946E3],"tree_param":{"num_deleted":"0","num_feature":"43","num_nodes":"31","size_leaf_vector":"1"}},{"base_weights":[-3.292192E-4,-2.6908362E-1,1.6471975E-1,-4.840324E-1,-1.738028E-1,9.738429E-2,3.9681557E-1,-7.218555E-1,-4.2090824E-1,-2.3717049E-1,-4.22941E-2,1.9252129E-2,2.1372715E-1,2.6257372E-1,4.822346E-1,-3.119403E-2,-4.3101948E-2,-5.66933E-3,-2.2779845E-2,-9.053957E-3,-1.817196E-2,-4.199548E-3,1.1361763E-2,3.488199E-3,-7.0273415E-3,5.7092803E-3,1.6972916E-2,1.754002E-2,5.452105E-3,1.9261522E-2,3.0133579E-2],"categories":[],"categories_nodes":[],"categories_segments":[],"categories_sizes":[],"default_left":[0,0,0,0,0,0,0,0,0,0,0,0,0,0,0,0,0,0,0,0,0,0,0,0,0,0,0,0,0,0,0],"id":22,"left_children":[1,3,5,7,9,11,13,15,17,19,21,23,25,27,29,-1,-1,-1,-1,-1,-1,-1,-1,-1,-1,-1,-1,-1,-1,-1,-1],"loss_changes":[1.46004E4,2.5647344E3,3.186874E3,5.7710254E2,7.230896E2,1.436816E3,5.2570264E2,1.10245605E2,3.24208E2,4.1466016E2,3.1713107E2,7.632847E2,7.947388E2,2.4153882E2,3.2716162E2,0E0,0E0,0E0,0E0,0E0,0E0,0E0,0E0,0E0,0E0,0E0,0E0,0E0,0E0,0E0,0E0],"parents":[2147483647,0,0,1,1,2,2,3,3,4,4,5,5,6,6,7,7,8,8,9,9,10,10,11,11,12,12,13,13,14,14],"right_children":[2,4,6,8,10,12,14,16,18,20,22,24,26,28,30,-1,-1,-1,-1,-1,-1,-1,-1,-1,-1,-1,-1,-1,-1,-1,-1],"split_conditions":[3E0,2E0,5E0,6.49E0,2.128E1,2.169E1,1.816E1,9.603126E0,3.8E4,9.550448E0,6E1,3E0,1E0,8.1E4,1E0,-3.119403E-2,-4.3101948E-2,-5.66933E-3,-2.2779845E-2,-9.053957E-3,-1.817196E-2,-4.199548E-3,1.1361763E-2,3.488199E-3,-7.0273415E-3,5.7092803E-3,1.6972916E-2,1.754002E-2,5.452105E-3,1.9261522E-2,3.0133579E-2],"split_indices":[4,4,4,2,7,7,7,34,6,34,1,20,40,6,40,0,0,0,0,0,0,0,0,0,0,0,0,0,0,0,0],"split_type":[0,0,0,0,0,0,0,0,0,0,0,0,0,0,0,0,0,0,0,0,0,0,0,0,0,0,0,0,0,0,0],"sum_hessian":[3.291499E5,1.2523127E5,2.0391862E5,3.846103E4,8.677025E4,1.5806295E5,4.5855684E4,8.0650703E3,3.0395959E4,5.8554742E4,2.8215504E4,9.4560375E4,6.350257E4,1.783338E4,2.8022303E4,4.7504233E3,3.3146467E3,3.081563E3,2.7314396E4,4.054583E4,1.8008914E4,2.4435898E4,3.7796062E3,7.184956E4,2.2710814E4,3.544367E4,2.8058898E4,1.1324495E4,6.5088853E3,1.5523405E4,1.2498897E4],"tree_param":{"num_deleted":"0","num_feature":"43","num_nodes":"31","size_leaf_vector":"1"}},{"base_weights":[1.8350767E-3,-2.5324714E-1,1.5824401E-1,-5.4146975E-1,-1.8556616E-1,3.201509E-2,2.7710485E-1,-4.6078253E-1,-7.466882E-1,-1.4056015E-1,-3.6419773E-1,9.589592E-2,-7.570534E-2,-1.1261791E-1,3.0835414E-1,-1.4649058E-2,-2.7118532E-2,-3.2893505E-2,-4.828729E-2,-1.1710654E-2,-2.0724402E-3,-2.321767E-2,-1.475511E-2,-1.0067653E-3,9.089998E-3,-2.2164084E-2,-2.5301033E-3,3.2537375E-3,-1.2370462E-2,1.7455842E-2,3.1046844E-3],"categories":[],"categories_nodes":[],"categories_segments":[],"categories_sizes":[],"default_left":[0,0,0,0,0,0,0,0,0,0,0,0,0,0,0,0,0,0,0,0,0,0,0,0,0,0,0,0,0,0,0],"id":23,"left_children":[1,3,5,7,9,11,13,15,17,19,21,23,25,27,29,-1,-1,-1,-1,-1,-1,-1,-1,-1,-1,-1,-1,-1,-1,-1,-1],"loss_changes":[1.3112825E4,2.43687E3,3.0568247E3,3.9302637E2,8.133159E2,6.799329E2,1.2779536E3,2.3332788E2,1.2977686E2,7.5009973E2,1.4075806E2,6.1825055E2,3.393897E2,1.865966E2,9.751221E2,0E0,0E0,0E0,0E0,0E0,0E0,0E0,0E0,0E0,0E0,0E0,0E0,0E0,0E0,0E0,0E0],"parents":[2147483647,0,0,1,1,2,2,3,3,4,4,5,5,6,6,7,7,8,8,9,9,10,10,11,11,12,12,13,13,14,14],"right_children":[2,4,6,8,10,12,14,16,18,20,22,24,26,28,30,-1,-1,-1,-1,-1,-1,-1,-1,-1,-1,-1,-1,-1,-1,-1,-1],"split_conditions":[3E0,7.89E0,4E0,7.52E2,9.907479E0,2E0,1.6285E2,8.358666E0,9.844109E0,2E0,9.75E0,2E0,1.6285E2,3.6648E4,9.997615E0,-1.4649058E-2,-2.7118532E-2,-3.2893505E-2,-4.828729E-2,-1.1710654E-2,-2.0724402E-3,-2.321767E-2,-1.475511E-2,-1.0067653E-3,9.089998E-3,-2.2164084E-2,-2.5301033E-3,3.2537375E-3,-1.2370462E-2,1.7455842E-2,3.1046844E-3],"split_indices":[4,2,4,30,34,20,3,34,34,25,2,25,3,6,34,0,0,0,0,0,0,0,0,0,0,0,0,0,0,0,0],"split_type":[0,0,0,0,0,0,0,0,0,0,0,0,0,0,0,0,0,0,0,0,0,0,0,0,0,0,0,0,0,0,0],"sum_hessian":[3.2866378E5,1.2492578E5,2.03738E5,2.3755385E4,1.011704E5,9.880715E4,1.0493085E5,1.7053557E4,6.7018286E3,8.081176E4,2.0358637E4,6.2024953E4,3.6782195E4,7.788954E3,9.71419E4,5.580595E3,1.1472962E4,4.771287E3,1.9305413E3,4.1549336E4,3.926242E4,8.308926E3,1.2049711E4,2.6385979E4,3.5638977E4,2.350352E3,3.4431844E4,3.3600222E3,4.428932E3,8.3345555E4,1.3796339E4],"tree_param":{"num_deleted":"0","num_feature":"43","num_nodes":"31","size_leaf_vector":"1"}},{"base_weights":[-8.0121274E-4,-2.4749261E-1,1.4987023E-1,-4.5928636E-1,-1.5524037E-1,5.03827E-2,2.892252E-1,-4.0071636E-1,-6.610298E-1,-2.3045734E-1,-5.1245246E-2,-8.536097E-2,1.2136731E-1,4.1142336E-1,1.6700675E-1,-1.3289011E-2,-2.4200425E-2,-3.469069E-2,-9.872041E-3,-9.895024E-3,-2.15006E-2,3.1153243E-3,-7.585374E-3,-1.7305305E-3,-1.1850069E-2,9.442085E-3,-1.9949924E-3,1.5843352E-2,2.8646177E-2,4.3379185E-3,1.7901672E-2],"categories":[],"categories_nodes":[],"categories_segments":[],"categories_sizes":[],"default_left":[0,0,0,0,0,0,0,0,0,0,0,0,0,0,0,0,0,0,0,0,0,0,0,0,0,0,0,0,0,0,0],"id":24,"left_children":[1,3,5,7,9,11,13,15,17,19,21,23,25,27,29,-1,-1,-1,-1,-1,-1,-1,-1,-1,-1,-1,-1,-1,-1,-1,-1],"loss_changes":[1.217521E4,2.4266802E3,2.8193384E3,4.4502295E2,6.7676514E2,1.1433027E3,1.2650044E3,3.2814795E2,1.2870605E2,3.2609985E2,4.142734E2,3.1353558E2,8.47782E2,6.466284E2,6.491947E2,0E0,0E0,0E0,0E0,0E0,0E0,0E0,0E0,0E0,0E0,0E0,0E0,0E0,0E0,0E0,0E0],"parents":[2147483647,0,0,1,1,2,2,3,3,4,4,5,5,6,6,7,7,8,8,9,9,10,10,11,11,12,12,13,13,14,14],"right_children":[2,4,6,8,10,12,14,16,18,20,22,24,26,28,30,-1,-1,-1,-1,-1,-1,-1,-1,-1,-1,-1,-1,-1,-1,-1,-1],"split_conditions":[3E0,2E0,6E1,7.52E2,6E0,2E0,6.87E2,8.499844E0,6E1,1.0221578E1,8.580168E0,2E0,9.2640705E0,2.275E1,2.523E1,-1.3289011E-2,-2.4200425E-2,-3.469069E-2,-9.872041E-3,-9.895024E-3,-2.15006E-2,3.1153243E-3,-7.585374E-3,-1.7305305E-3,-1.1850069E-2,9.442085E-3,-1.9949924E-3,1.5843352E-2,2.8646177E-2,4.3379185E-3,1.7901672E-2],"split_indices":[4,4,1,30,22,25,30,34,1,34,34,20,34,7,7,0,0,0,0,0,0,0,0,0,0,0,0,0,0,0,0],"split_type":[0,0,0,0,0,0,0,0,0,0,0,0,0,0,0,0,0,0,0,0,0,0,0,0,0,0,0,0,0,0,0],"sum_hessian":[3.2755847E5,1.2420289E5,2.033556E5,3.7683863E4,8.651903E4,1.1865058E5,8.470501E4,2.9207387E4,8.476478E3,5.020549E4,3.631354E4,4.0741168E4,7.7909414E4,4.235484E4,4.235017E4,1.1149306E4,1.805808E4,7.916167E3,5.603108E2,4.3165188E4,7.0403022E3,1.7046447E4,1.9267094E4,3.0526064E4,1.0215102E4,5.4927504E4,2.2981908E4,2.671595E4,1.563889E4,2.9823201E4,1.2526971E4],"tree_param":{"num_deleted":"0","num_feature":"43","num_nodes":"31","size_leaf_vector":"1"}},{"base_weights":[5.228381E-4,-2.3194934E-1,1.4246556E-1,-4.2729262E-1,-1.475361E-1,8.173656E-2,3.551384E-1,-3.5562044E-1,-5.991509E-1,-1.8176499E-1,6.811741E-2,-5.650964E-2,1.392435E-1,2.7891162E-1,4.9339005E-1,-1.0006178E-2,-2.1686643E-2,-2.1351105E-2,-3.6800895E-2,-4.3813097E-3,-1.3868867E-2,1.287477E-2,-1.5983386E-3,-8.6401944E-4,-1.43398885E-2,3.0358692E-3,1.1984334E-2,1.6091462E-2,1.2857321E-3,2.147056E-2,3.1608712E-2],"categories":[],"categories_nodes":[],"categories_segments":[],"categories_sizes":[],"default_left":[0,0,0,0,0,0,0,0,0,0,0,0,0,0,0,0,0,0,0,0,0,0,0,0,0,0,0,0,0,0,0],"id":25,"left_children":[1,3,5,7,9,11,13,15,17,19,21,23,25,27,29,-1,-1,-1,-1,-1,-1,-1,-1,-1,-1,-1,-1,-1,-1,-1,-1],"loss_changes":[1.0778089E4,2.0418008E3,2.6192607E3,4.600044E2,6.382655E2,1.2541975E3,4.745913E2,3.202019E2,2.587063E2,6.7163477E2,2.2451134E2,4.18682E2,8.787449E2,3.1555225E2,1.4187354E2,0E0,0E0,0E0,0E0,0E0,0E0,0E0,0E0,0E0,0E0,0E0,0E0,0E0,0E0,0E0,0E0],"parents":[2147483647,0,0,1,1,2,2,3,3,4,4,5,5,6,6,7,7,8,8,9,9,10,10,11,11,12,12,13,13,14,14],"right_children":[2,4,6,8,10,12,14,16,18,20,22,24,26,28,30,-1,-1,-1,-1,-1,-1,-1,-1,-1,-1,-1,-1,-1,-1,-1,-1],"split_conditions":[3E0,2E0,5E0,7.42E2,6E1,1.435E1,2.447E1,8.320935E0,6.63E4,6.92E2,7.07E2,4E0,1E0,4E0,6E0,-1.0006178E-2,-2.1686643E-2,-2.1351105E-2,-3.6800895E-2,-4.3813097E-3,-1.3868867E-2,1.287477E-2,-1.5983386E-3,-8.6401944E-4,-1.43398885E-2,3.0358692E-3,1.1984334E-2,1.6091462E-2,1.2857321E-3,2.147056E-2,3.1608712E-2],"split_indices":[4,4,4,30,1,7,7,34,6,30,30,20,40,20,4,0,0,0,0,0,0,0,0,0,0,0,0,0,0,0,0],"split_type":[0,0,0,0,0,0,0,0,0,0,0,0,0,0,0,0,0,0,0,0,0,0,0,0,0,0,0,0,0,0,0],"sum_hessian":[3.266292E5,1.23826664E5,2.0280253E5,3.736201E4,8.646465E4,1.5775639E5,4.5046152E4,2.636836E4,1.0993651E4,7.462086E4,1.1843791E4,4.6344535E4,1.1141185E5,2.9038457E4,1.6007693E4,8.818036E3,1.7550324E4,4.871365E3,6.1222866E3,3.7601137E4,3.701972E4,4.0945547E3,7.749237E3,3.9599836E4,6.7447007E3,6.2528723E4,4.888313E4,2.4829512E4,4.208946E3,1.0959505E4,5.048189E3],"tree_param":{"num_deleted":"0","num_feature":"43","num_nodes":"31","size_leaf_vector":"1"}},{"base_weights":[-9.102604E-4,-2.2261597E-1,1.3398324E-1,-4.150159E-1,-1.4011066E-1,4.010123E-2,2.6583076E-1,-3.7117112E-1,-6.8191904E-1,-2.3535876E-1,-5.696106E-2,-1.5334735E-2,1.981862E-1,4.053203E-1,1.657099E-1,-1.2472308E-3,-2.0333607E-2,-3.5651367E-2,-1.33472895E-2,1.9177285E-3,-1.351692E-2,3.6473498E-3,-6.2868744E-3,2.2442404E-3,-7.219909E-3,1.5946083E-2,4.6680914E-3,1.4367665E-2,2.4632787E-2,2.6823087E-3,1.564329E-2],"categories":[],"categories_nodes":[],"categories_segments":[],"categories_sizes":[],"default_left":[0,0,0,0,0,0,0,0,0,0,0,0,0,0,0,0,0,0,0,0,0,0,0,0,0,0,0,0,0,0,0],"id":26,"left_children":[1,3,5,7,9,11,13,15,17,19,21,23,25,27,29,-1,-1,-1,-1,-1,-1,-1,-1,-1,-1,-1,-1,-1,-1,-1,-1],"loss_changes":[9.741277E3,1.9558374E3,2.5066685E3,4.324829E2,6.829614E2,1.0366112E3,1.1761943E3,3.9040625E2,6.714746E1,3.8483862E2,4.1138937E2,6.806627E2,3.8864087E2,3.6243408E2,8.0857874E2,0E0,0E0,0E0,0E0,0E0,0E0,0E0,0E0,0E0,0E0,0E0,0E0,0E0,0E0,0E0,0E0],"parents":[2147483647,0,0,1,1,2,2,3,3,4,4,5,5,6,6,7,7,8,8,9,9,10,10,11,11,12,12,13,13,14,14],"right_children":[2,4,6,8,10,12,14,16,18,20,22,24,26,28,30,-1,-1,-1,-1,-1,-1,-1,-1,-1,-1,-1,-1,-1,-1,-1,-1],"split_conditions":[3E0,2E0,6E1,7.67E2,1.656E1,4E0,6.1E4,3.8E4,6E1,3.7E4,8.296297E0,6.6E4,1E0,2E0,3E0,-1.2472308E-3,-2.0333607E-2,-3.5651367E-2,-1.33472895E-2,1.9177285E-3,-1.351692E-2,3.6473498E-3,-6.2868744E-3,2.2442404E-3,-7.219909E-3,1.5946083E-2,4.6680914E-3,1.4367665E-2,2.4632787E-2,2.6823087E-3,1.564329E-2],"split_indices":[4,4,1,30,7,25,6,6,1,6,34,6,20,25,25,0,0,0,0,0,0,0,0,0,0,0,0,0,0,0,0],"split_type":[0,0,0,0,0,0,0,0,0,0,0,0,0,0,0,0,0,0,0,0,0,0,0,0,0,0,0,0,0,0,0],"sum_hessian":[3.257207E5,1.232126E5,2.025081E5,3.697769E4,8.623491E4,1.1828475E5,8.422334E4,3.17624E4,5.2152935E3,4.0192477E4,4.604243E4,8.7575414E4,3.0709338E4,3.519133E4,4.9032016E4,2.9540916E3,2.8808309E4,4.8509277E3,3.6436566E2,4.5544116E3,3.5638066E4,1.5937981E4,3.0104447E4,5.971413E4,2.7861283E4,1.4270595E4,1.6438744E4,1.4972178E4,2.021915E4,2.7835664E4,2.119635E4],"tree_param":{"num_deleted":"0","num_feature":"43","num_nodes":"31","size_leaf_vector":"1"}},{"base_weights":[-7.231844E-4,-3.093875E-1,8.4294744E-2,-5.1588166E-1,-2.4139285E-1,-8.506739E-3,2.3433824E-1,-5.7570803E-1,-2.4909443E-1,-2.906988E-1,-5.012623E-2,-7.711969E-2,1.0069191E-1,-2.2809153E-2,2.7248958E-1,-3.4980454E-2,-2.392377E-2,-2.881734E-3,-2.5506034E-2,-1.8912693E-2,-1.0913223E-2,5.0972966E-3,-8.5173715E-3,-1.6079448E-3,-1.0802132E-2,1.0372366E-2,3.8262905E-4,-1.876787E-2,1.0487904E-3,1.658517E-2,4.5609297E-3],"categories":[],"categories_nodes":[],"categories_segments":[],"categories_sizes":[],"default_left":[0,0,0,0,0,0,0,0,0,0,0,0,0,0,0,0,0,0,0,0,0,0,0,0,0,0,0,0,0,0,0],"id":27,"left_children":[1,3,5,7,9,11,13,15,17,19,21,23,25,27,29,-1,-1,-1,-1,-1,-1,-1,-1,-1,-1,-1,-1,-1,-1,-1,-1],"loss_changes":[8.532802E3,9.857959E2,3.549831E3,2.7747217E2,4.9817725E2,1.1801909E3,9.557749E2,1.7081738E2,1.592825E2,2.6628052E2,1.979832E2,6.04211E2,6.037128E2,1.9431323E2,9.1058203E2,0E0,0E0,0E0,0E0,0E0,0E0,0E0,0E0,0E0,0E0,0E0,0E0,0E0,0E0,0E0,0E0],"parents":[2147483647,0,0,1,1,2,2,3,3,4,4,5,5,6,6,7,7,8,8,9,9,10,10,11,11,12,12,13,13,14,14],"right_children":[2,4,6,8,10,12,14,16,18,20,22,24,26,28,30,-1,-1,-1,-1,-1,-1,-1,-1,-1,-1,-1,-1,-1,-1,-1,-1],"split_conditions":[1.049E1,7.39E0,1.629E1,8E0,8E0,2.108E1,2.2228E2,6.49E0,9.279306E0,1.479E1,8.593969E0,3E0,6.87E2,7.509E1,3E0,-3.4980454E-2,-2.392377E-2,-2.881734E-3,-2.5506034E-2,-1.8912693E-2,-1.0913223E-2,5.0972966E-3,-8.5173715E-3,-1.6079448E-3,-1.0802132E-2,1.0372366E-2,3.8262905E-4,-1.876787E-2,1.0487904E-3,1.658517E-2,4.5609297E-3],"split_indices":[2,2,2,22,22,7,3,2,34,7,34,20,30,3,20,0,0,0,0,0,0,0,0,0,0,0,0,0,0,0,0],"split_type":[0,0,0,0,0,0,0,0,0,0,0,0,0,0,0,0,0,0,0,0,0,0,0,0,0,0,0,0,0,0,0],"sum_hessian":[3.251562E5,7.021876E4,2.5493742E5,1.7392525E4,5.2826234E4,1.5751548E5,9.742194E4,1.420576E4,3.1867666E3,4.1998953E4,1.082728E4,9.673446E4,6.0781023E4,1.2586554E4,8.483539E4,6.2435605E3,7.9621987E3,1.839059E3,1.3477078E3,1.9012889E4,2.2986066E4,4.7804575E3,6.0468228E3,7.308317E4,2.365129E4,2.8303604E4,3.2477418E4,1.3896647E3,1.1196889E4,6.394602E4,2.0889367E4],"tree_param":{"num_deleted":"0","num_feature":"43","num_nodes":"31","size_leaf_vector":"1"}},{"base_weights":[4.5474904E-4,-2.0019913E-1,1.2243324E-1,-3.8338065E-1,-1.22834355E-1,3.300443E-2,2.4860378E-1,-6.1558855E-1,-3.2379693E-1,-1.8062718E-1,-5.8052475E-3,-2.0121096E-2,1.8370327E-1,1.5992855E-1,4.020337E-1,-3.2941323E-2,-1.236949E-2,-1.3745842E-2,-2.702486E-2,-2.6556803E-3,-1.2156624E-2,-5.4984214E-3,3.995744E-3,1.7850291E-3,-6.969662E-3,4.1591655E-3,1.5146068E-2,9.839426E-3,-7.4631968E-3,1.2576182E-2,2.5382003E-2],"categories":[],"categories_nodes":[],"categories_segments":[],"categories_sizes":[],"default_left":[0,0,0,0,0,0,0,0,0,0,0,0,0,0,0,0,0,0,0,0,0,0,0,0,0,0,0,0,0,0,0],"id":28,"left_children":[1,3,5,7,9,11,13,15,17,19,21,23,25,27,29,-1,-1,-1,-1,-1,-1,-1,-1,-1,-1,-1,-1,-1,-1,-1,-1],"loss_changes":[7.9337085E3,1.7367363E3,2.274672E3,5.0327588E2,5.8276294E2,9.445276E2,1.1376328E3,1.181167E2,3.0661304E2,4.5970984E2,2.5434937E2,5.8076935E2,3.6847925E2,6.0400256E2,4.8668115E2,0E0,0E0,0E0,0E0,0E0,0E0,0E0,0E0,0E0,0E0,0E0,0E0,0E0,0E0,0E0,0E0],"parents":[2147483647,0,0,1,1,2,2,3,3,4,4,5,5,6,6,7,7,8,8,9,9,10,10,11,11,12,12,13,13,14,14],"right_children":[2,4,6,8,10,12,14,16,18,20,22,24,26,28,30,-1,-1,-1,-1,-1,-1,-1,-1,-1,-1,-1,-1,-1,-1,-1,-1],"split_conditions":[3E0,8.39E0,6E1,6.49E0,2.108E1,4E0,1E0,7E0,1.0105122E1,5.356E4,2E0,6.6E4,1E0,1.045025E1,2E0,-3.2941323E-2,-1.236949E-2,-1.3745842E-2,-2.702486E-2,-2.6556803E-3,-1.2156624E-2,-5.4984214E-3,3.995744E-3,1.7850291E-3,-6.969662E-3,4.1591655E-3,1.5146068E-2,9.839426E-3,-7.4631968E-3,1.2576182E-2,2.5382003E-2],"split_indices":[4,2,1,2,7,25,40,21,34,6,25,6,40,34,25,0,0,0,0,0,0,0,0,0,0,0,0,0,0,0,0],"split_type":[0,0,0,0,0,0,0,0,0,0,0,0,0,0,0,0,0,0,0,0,0,0,0,0,0,0,0,0,0,0,0],"sum_hessian":[3.2414753E5,1.2255109E5,2.0159645E5,3.638828E4,8.616281E4,1.17976664E5,8.361979E4,7.4285674E3,2.8959715E4,5.7678652E4,2.848416E4,8.722744E4,3.0749229E4,5.299388E4,3.062591E4,6.647193E3,7.813744E2,2.3631527E4,5.328186E3,1.8973574E4,3.870508E4,1.2858643E4,1.5625518E4,5.9418926E4,2.780851E4,1.6683805E4,1.4065423E4,4.734953E4,5.644346E3,1.2629602E4,1.7996309E4],"tree_param":{"num_deleted":"0","num_feature":"43","num_nodes":"31","size_leaf_vector":"1"}},{"base_weights":[4.3022304E-4,-9.160731E-2,2.1730722E-1,-2.1821104E-1,3.4483203E-3,1.315012E-1,3.7717855E-1,-7.917045E-2,-3.2364655E-1,9.460269E-2,-1.4370961E-1,6.6387214E-2,3.1826305E-1,2.3617372E-1,4.8593226E-1,-6.952503E-3,2.8597494E-3,-1.8341117E-2,-9.566121E-3,1.2714734E-3,1.0770473E-2,2.8027178E-4,-1.1638725E-2,8.419988E-3,-1.6315941E-3,1.1028388E-2,2.212958E-2,9.189135E-3,2.5677485E-2,2.82277E-2,1.888554E-2],"categories":[],"categories_nodes":[],"categories_segments":[],"categories_sizes":[],"default_left":[0,0,0,0,0,0,0,0,0,0,0,0,0,0,0,0,0,0,0,0,0,0,0,0,0,0,0,0,0,0,0],"id":29,"left_children":[1,3,5,7,9,11,13,15,17,19,21,23,25,27,29,-1,-1,-1,-1,-1,-1,-1,-1,-1,-1,-1,-1,-1,-1,-1,-1],"loss_changes":[6.4553867E3,2.7323945E3,1.3217295E3,1.4273535E3,1.7395914E3,7.624951E2,5.15938E2,3.4290067E2,3.1629834E2,6.691892E2,6.5967224E2,4.6965356E2,1.9678687E2,2.1287787E2,1.614331E2,0E0,0E0,0E0,0E0,0E0,0E0,0E0,0E0,0E0,0E0,0E0,0E0,0E0,0E0,0E0,0E0],"parents":[2147483647,0,0,1,1,2,2,3,3,4,4,5,5,6,6,7,7,8,8,9,9,10,10,11,11,12,12,13,13,14,14],"right_children":[2,4,6,8,10,12,14,16,18,20,22,24,26,28,30,-1,-1,-1,-1,-1,-1,-1,-1,-1,-1,-1,-1,-1,-1,-1,-1],"split_conditions":[6E1,2E0,1E0,5.0576E4,2E0,2.523E1,2E0,1E0,7E0,2.264E1,6.5E4,7.6E4,3E0,2.803E1,6.9E4,-6.952503E-3,2.8597494E-3,-1.8341117E-2,-9.566121E-3,1.2714734E-3,1.0770473E-2,2.8027178E-4,-1.1638725E-2,8.419988E-3,-1.6315941E-3,1.1028388E-2,2.212958E-2,9.189135E-3,2.5677485E-2,2.82277E-2,1.888554E-2],"split_indices":[1,25,40,6,20,7,25,42,22,7,6,6,25,7,6,0,0,0,0,0,0,0,0,0,0,0,0,0,0,0,0],"split_type":[0,0,0,0,0,0,0,0,0,0,0,0,0,0,0,0,0,0,0,0,0,0,0,0,0,0,0,0,0,0,0],"sum_hessian":[3.2340084E5,2.2704769E5,9.635316E4,9.736578E4,1.296819E5,6.2701742E4,3.365141E4,4.199182E4,5.5373965E4,8.007884E4,4.960306E4,4.6493332E4,1.6208412E4,1.46543955E4,1.8997016E4,2.917898E4,1.2812841E4,4.174975E4,1.3624212E4,5.092227E4,2.9156572E4,1.8533332E4,3.1069727E4,2.2900168E4,2.3593162E4,9.077912E3,7.1305005E3,1.2327609E4,2.3267861E3,1.100082E4,7.9961943E3],"tree_param":{"num_deleted":"0","num_feature":"43","num_nodes":"31","size_leaf_vector":"1"}},{"base_weights":[-6.9233956E-4,-1.2607904E-1,1.6745174E-1,-3.0269283E-1,-4.703831E-2,5.840322E-2,2.4654622E-1,-2.0445195E-1,-4.2430285E-1,-1.4375293E-1,2.6662135E-2,-2.4359441E-1,8.447329E-2,1.793701E-1,3.786986E-1,-1.3018707E-2,-2.1657762E-3,-1.4242517E-2,-2.6932707E-2,6.995271E-4,-8.862895E-3,-2.6287355E-3,6.9905394E-3,-3.4623916E-4,-1.9401275E-2,5.7816408E-3,-8.513982E-3,1.2349454E-2,2.8553833E-3,1.665843E-2,3.0316148E-2],"categories":[],"categories_nodes":[],"categories_segments":[],"categories_sizes":[],"default_left":[0,0,0,0,0,0,0,0,0,0,0,0,0,0,0,0,0,0,0,0,0,0,0,0,0,0,0,0,0,0,0],"id":30,"left_children":[1,3,5,7,9,11,13,15,17,19,21,23,25,27,29,-1,-1,-1,-1,-1,-1,-1,-1,-1,-1,-1,-1,-1,-1,-1,-1],"loss_changes":[6.80645E3,2.5815981E3,1.1894502E3,6.829956E2,9.106569E2,4.5647668E2,7.0951855E2,2.849967E2,4.0725293E2,2.9202393E2,6.500719E2,1.5748965E2,4.2367184E2,4.3811084E2,2.7896362E2,0E0,0E0,0E0,0E0,0E0,0E0,0E0,0E0,0E0,0E0,0E0,0E0,0E0,0E0,0E0,0E0],"parents":[2147483647,0,0,1,1,2,2,3,3,4,4,5,5,6,6,7,7,8,8,9,9,10,10,11,11,12,12,13,13,14,14],"right_children":[2,4,6,8,10,12,14,16,18,20,22,24,26,28,30,-1,-1,-1,-1,-1,-1,-1,-1,-1,-1,-1,-1,-1,-1,-1,-1],"split_conditions":[1.446E1,9.75E0,1.807E1,7.17E2,5E0,1.5437E2,5E0,2.179E1,6.63E4,3.54E4,1E0,3.6648E4,1.0135432E1,9.18574E0,2.499E1,-1.3018707E-2,-2.1657762E-3,-1.4242517E-2,-2.6932707E-2,6.995271E-4,-8.862895E-3,-2.6287355E-3,6.9905394E-3,-3.4623916E-4,-1.9401275E-2,5.7816408E-3,-8.513982E-3,1.2349454E-2,2.8553833E-3,1.665843E-2,3.0316148E-2],"split_indices":[2,2,7,30,24,3,4,7,6,6,40,6,32,34,2,0,0,0,0,0,0,0,0,0,0,0,0,0,0,0,0],"split_type":[0,0,0,0,0,0,0,0,0,0,0,0,0,0,0,0,0,0,0,0,0,0,0,0,0,0,0,0,0,0,0],"sum_hessian":[3.2283822E5,1.8493248E5,1.3790572E5,5.717472E4,1.27757766E5,5.797568E4,7.993004E4,3.1627549E4,2.554717E4,5.525177E4,7.2506E4,4.606404E3,5.3369277E4,5.2994207E4,2.693583E4,2.3478686E4,8.1488633E3,1.1511851E4,1.4035318E4,9.679701E3,4.5572066E4,4.2643637E4,2.9862365E4,1.7461506E3,2.8602532E3,4.7553434E4,5.8158438E3,3.4121703E4,1.8872508E4,2.244816E4,4.487671E3],"tree_param":{"num_deleted":"0","num_feature":"43","num_nodes":"31","size_leaf_vector":"1"}},{"base_weights":[1.2286248E-3,-1.7874077E-1,1.1013388E-1,-3.4308234E-1,-1.1051572E-1,1.3269039E-2,2.0330398E-1,-4.5093542E-1,-2.3661597E-1,-1.4358822E-1,9.761851E-2,-4.9891442E-2,1.05718344E-1,-1.18632555E-1,2.3085393E-1,-1.9602353E-2,-3.194331E-2,-1.4998673E-2,-2.084213E-3,-2.8331762E-3,-1.1597663E-2,8.929852E-3,-7.231384E-3,-5.835528E-3,1.7528406E-3,3.1823914E-3,1.2311478E-2,-1.795543E-3,-1.8065084E-2,1.5006626E-4,1.3408474E-2],"categories":[],"categories_nodes":[],"categories_segments":[],"categories_sizes":[],"default_left":[0,0,0,0,0,0,0,0,0,0,0,0,0,0,0,0,0,0,0,0,0,0,0,0,0,0,0,0,0,0,0],"id":31,"left_children":[1,3,5,7,9,11,13,15,17,19,21,23,25,27,29,-1,-1,-1,-1,-1,-1,-1,-1,-1,-1,-1,-1,-1,-1,-1,-1],"loss_changes":[6.318562E3,1.3626665E3,1.8126003E3,4.092915E2,5.9120544E2,5.7499084E2,9.0802295E2,1.9574805E2,2.2160455E2,5.6923E2,2.310429E2,3.3207806E2,2.3625436E2,1.620009E2,8.018203E2,0E0,0E0,0E0,0E0,0E0,0E0,0E0,0E0,0E0,0E0,0E0,0E0,0E0,0E0,0E0,0E0],"parents":[2147483647,0,0,1,1,2,2,3,3,4,4,5,5,6,6,7,7,8,8,9,9,10,10,11,11,12,12,13,13,14,14],"right_children":[2,4,6,8,10,12,14,16,18,20,22,24,26,28,30,-1,-1,-1,-1,-1,-1,-1,-1,-1,-1,-1,-1,-1,-1,-1,-1],"split_conditions":[3E0,2E0,4E0,1.55E1,6E1,2.108E1,1.6773E2,1.0105122E1,8E0,6.92E2,7.42E2,1E0,4E0,5.7E4,1E0,-1.9602353E-2,-3.194331E-2,-1.4998673E-2,-2.084213E-3,-2.8331762E-3,-1.1597663E-2,8.929852E-3,-7.231384E-3,-5.835528E-3,1.7528406E-3,3.1823914E-3,1.2311478E-2,-1.795543E-3,-1.8065084E-2,1.5006626E-4,1.3408474E-2],"split_indices":[4,4,4,7,1,7,3,34,22,30,30,41,25,6,25,0,0,0,0,0,0,0,0,0,0,0,0,0,0,0,0],"split_type":[0,0,0,0,0,0,0,0,0,0,0,0,0,0,0,0,0,0,0,0,0,0,0,0,0,0,0,0,0,0,0],"sum_hessian":[3.2238003E5,1.21536484E5,2.0084355E5,3.5652395E4,8.5884086E4,9.846989E4,1.0237366E5,1.770925E4,1.7943145E4,7.410856E4,1.1775526E4,5.8502203E4,3.9967684E4,8.0698325E3,9.430382E4,1.3486365E4,4.222885E3,1.3541344E4,4.4018013E3,3.7359582E4,3.674898E4,8.8255625E3,2.9499639E3,3.2745037E4,2.5757166E4,3.0759441E4,9.208243E3,6.019155E3,2.0506777E3,1.3270969E4,8.103285E4],"tree_param":{"num_deleted":"0","num_feature":"43","num_nodes":"31","size_leaf_vector":"1"}},{"base_weights":[-7.1985525E-4,-1.7338015E-1,1.0362223E-1,-4.4588766E-1,-1.3017422E-1,5.582271E-2,2.750629E-1,-5.085682E-1,-1.7599736E-1,-4.4251554E-2,-2.0529005E-1,-1.889438E-1,8.084367E-2,2.2756866E-1,5.280613E-1,-3.136389E-2,-2.0890824E-2,7.0994194E-3,-1.680356E-2,-6.7610764E-3,2.4666362E-3,-1.2296912E-2,3.3006212E-4,-2.0517686E-3,-1.4029175E-2,6.6400314E-4,8.44586E-3,1.4085124E-2,2.727434E-3,3.019073E-2,1.9332336E-2],"categories":[],"categories_nodes":[],"categories_segments":[],"categories_sizes":[],"default_left":[0,0,0,0,0,0,0,0,0,0,0,0,0,0,0,0,0,0,0,0,0,0,0,0,0,0,0,0,0,0,0],"id":32,"left_children":[1,3,5,7,9,11,13,15,17,19,21,23,25,27,29,-1,-1,-1,-1,-1,-1,-1,-1,-1,-1,-1,-1,-1,-1,-1,-1],"loss_changes":[5.785268E3,1.4241365E3,1.6402639E3,2.7994263E2,6.7386365E2,9.5860706E2,5.242522E2,1.4445312E2,1.5893047E2,4.1462915E2,4.7981152E2,1.9675238E2,8.450202E2,3.4413696E2,7.364807E1,0E0,0E0,0E0,0E0,0E0,0E0,0E0,0E0,0E0,0E0,0E0,0E0,0E0,0E0,0E0,0E0],"parents":[2147483647,0,0,1,1,2,2,3,3,4,4,5,5,6,6,7,7,8,8,9,9,10,10,11,11,12,12,13,13,14,14],"right_children":[2,4,6,8,10,12,14,16,18,20,22,24,26,28,30,-1,-1,-1,-1,-1,-1,-1,-1,-1,-1,-1,-1,-1,-1,-1,-1],"split_conditions":[3E0,7.39E0,5E0,8E0,6.1E4,1.6285E2,2.499E1,6.49E0,1.0797553E1,5E0,6E1,3.6648E4,1E0,8.6E4,9.233862E0,-3.136389E-2,-2.0890824E-2,7.0994194E-3,-1.680356E-2,-6.7610764E-3,2.4666362E-3,-1.2296912E-2,3.3006212E-4,-2.0517686E-3,-1.4029175E-2,6.6400314E-4,8.44586E-3,1.4085124E-2,2.727434E-3,3.019073E-2,1.9332336E-2],"split_indices":[4,2,4,22,6,3,2,2,33,22,1,6,40,6,34,0,0,0,0,0,0,0,0,0,0,0,0,0,0,0,0],"split_type":[0,0,0,0,0,0,0,0,0,0,0,0,0,0,0,0,0,0,0,0,0,0,0,0,0,0,0,0,0,0,0],"sum_hessian":[3.2112106E5,1.2096059E5,2.0016048E5,1.6552393E4,1.044082E5,1.5652183E5,4.3638652E4,1.3431997E4,3.120395E3,4.870158E4,5.570663E4,1.4515732E4,1.420061E5,3.674296E4,6.8956904E3,5.817021E3,7.6149756E3,1.0448734E3,2.0755217E3,2.4695506E4,2.4006072E4,4.674008E4,8.96655E3,5.5535815E3,8.962151E3,8.03605E4,6.1645594E4,2.7986139E4,8.756823E3,4.48818E3,2.4075105E3],"tree_param":{"num_deleted":"0","num_feature":"43","num_nodes":"31","size_leaf_vector":"1"}},{"base_weights":[1.7544217E-3,-1.6126092E-1,1.0010305E-1,-3.1309453E-1,-9.895737E-2,1.0119855E-2,1.8726653E-1,-3.71551E-1,-1.3238542E-1,-1.3661318E-1,4.8679356E-2,-9.757916E-2,6.1980095E-2,-5.029577E-2,2.1944319E-1,-1.2039431E-2,-2.1925172E-2,1.5457188E-2,-8.487024E-3,-8.196564E-3,1.6391199E-3,-1.7057455E-3,8.589218E-3,-9.685531E-3,6.5508817E-4,-1.7012675E-4,7.3990407E-3,4.2479504E-3,-7.49496E-3,7.1437545E-3,1.6042743E-2],"categories":[],"categories_nodes":[],"categories_segments":[],"categories_sizes":[],"default_left":[0,0,0,0,0,0,0,0,0,0,0,0,0,0,0,0,0,0,0,0,0,0,0,0,0,0,0,0,0,0,0],"id":33,"left_children":[1,3,5,7,9,11,13,15,17,19,21,23,25,27,29,-1,-1,-1,-1,-1,-1,-1,-1,-1,-1,-1,-1,-1,-1,-1,-1],"loss_changes":[5.1429688E3,1.1418484E3,1.5692616E3,3.709453E2,4.7583417E2,5.498662E2,7.7687744E2,2.3220898E2,1.4165674E2,3.1558826E2,1.772988E2,3.4045947E2,3.7364984E2,1.6334845E2,6.949761E2,0E0,0E0,0E0,0E0,0E0,0E0,0E0,0E0,0E0,0E0,0E0,0E0,0E0,0E0,0E0,0E0],"parents":[2147483647,0,0,1,1,2,2,3,3,4,4,5,5,6,6,7,7,8,8,9,9,10,10,11,11,12,12,13,13,14,14],"right_children":[2,4,6,8,10,12,14,16,18,20,22,24,26,28,30,-1,-1,-1,-1,-1,-1,-1,-1,-1,-1,-1,-1,-1,-1,-1,-1],"split_conditions":[3E0,2E0,4E0,2.149E1,2.472E1,1.479E1,2.0801E2,6.1E4,1.16E2,6E1,1E0,1E0,1E0,3.6648E4,1E0,-1.2039431E-2,-2.1925172E-2,1.5457188E-2,-8.487024E-3,-8.196564E-3,1.6391199E-3,-1.7057455E-3,8.589218E-3,-9.685531E-3,6.5508817E-4,-1.7012675E-4,7.3990407E-3,4.2479504E-3,-7.49496E-3,7.1437545E-3,1.6042743E-2],"split_indices":[4,4,4,7,7,7,3,6,11,1,40,41,40,6,40,0,0,0,0,0,0,0,0,0,0,0,0,0,0,0,0],"split_type":[0,0,0,0,0,0,0,0,0,0,0,0,0,0,0,0,0,0,0,0,0,0,0,0,0,0,0,0,0,0,0],"sum_hessian":[3.2078522E5,1.20708016E5,2.0007722E5,3.511902E4,8.5589E4,9.84468E4,1.01630414E5,2.6534482E4,8.584535E3,6.819535E4,1.7393643E4,3.1997072E4,6.644973E4,1.2123232E4,8.950719E4,8.986966E3,1.7547518E4,6.690637E2,7.9154717E3,5.872493E4,9.470425E3,1.0399907E4,6.9937344E3,1.7123646E4,1.4873425E4,3.7750562E4,2.8699164E4,5.141529E3,6.981704E3,5.100196E4,3.8505223E4],"tree_param":{"num_deleted":"0","num_feature":"43","num_nodes":"31","size_leaf_vector":"1"}},{"base_weights":[-1.1600454E-3,-7.8749135E-2,1.8269126E-1,-3.0126409E-3,-2.4298249E-1,2.7920637E-1,4.4124182E-2,-5.907994E-2,1.2187433E-1,-1.6672322E-1,-3.7602273E-1,1.5850855E-1,3.6748132E-1,1.8977377E-1,-4.1140668E-2,5.1540835E-3,-4.536663E-3,1.5980651E-3,1.0903258E-2,-1.1593409E-2,-3.0775554E-3,-1.6461413E-2,-2.8524095E-2,3.97099E-3,1.46225635E-2,2.3055969E-2,1.3392909E-2,1.2085572E-2,3.3483373E-3,1.4754935E-3,-9.804311E-3],"categories":[],"categories_nodes":[],"categories_segments":[],"categories_sizes":[],"default_left":[0,0,0,0,0,0,0,0,0,0,0,0,0,0,0,0,0,0,0,0,0,0,0,0,0,0,0,0,0,0,0],"id":34,"left_children":[1,3,5,7,9,11,13,15,17,19,21,23,25,27,29,-1,-1,-1,-1,-1,-1,-1,-1,-1,-1,-1,-1,-1,-1,-1,-1],"loss_changes":[4.5662783E3,2.799983E3,1.2704978E3,1.0787632E3,7.2073486E2,5.96563E2,4.8439325E2,5.457859E2,4.1284705E2,3.0940747E2,2.3535571E2,2.5057373E2,3.0157568E2,9.1847046E1,2.6933224E2,0E0,0E0,0E0,0E0,0E0,0E0,0E0,0E0,0E0,0E0,0E0,0E0,0E0,0E0,0E0,0E0],"parents":[2147483647,0,0,1,1,2,2,3,3,4,4,5,5,6,6,7,7,8,8,9,9,10,10,11,11,12,12,13,13,14,14],"right_children":[2,4,6,8,10,12,14,16,18,20,22,24,26,28,30,-1,-1,-1,-1,-1,-1,-1,-1,-1,-1,-1,-1,-1,-1,-1,-1],"split_conditions":[6E1,7.02E2,6.97E2,2.297E1,9.340139E0,1.78E1,6.1E4,3.7E4,1E0,2.078E1,7.47E2,1E0,8.959055E0,7.27E2,1.0010681E1,5.1540835E-3,-4.536663E-3,1.5980651E-3,1.0903258E-2,-1.1593409E-2,-3.0775554E-3,-1.6461413E-2,-2.8524095E-2,3.97099E-3,1.46225635E-2,2.3055969E-2,1.3392909E-2,1.2085572E-2,3.3483373E-3,1.4754935E-3,-9.804311E-3],"split_indices":[1,30,30,7,34,7,6,6,40,7,30,40,34,30,34,0,0,0,0,0,0,0,0,0,0,0,0,0,0,0,0],"split_type":[0,0,0,0,0,0,0,0,0,0,0,0,0,0,0,0,0,0,0,0,0,0,0,0,0,0,0,0,0,0,0],"sum_hessian":[3.2010484E5,2.2510597E5,9.499885E4,1.5406134E5,7.104464E4,5.599562E4,3.9003234E4,1.0632697E5,4.7734367E4,4.5160617E4,2.5884018E4,2.3655037E4,3.2340584E4,1.4401439E4,2.4601795E4,1.7364658E4,8.896231E4,2.4672979E4,2.3061389E4,2.788629E4,1.7274328E4,2.0865627E4,5.0183906E3,1.4874014E4,8.781023E3,1.6669203E4,1.5671381E4,1.0120359E4,4.28108E3,1.689774E4,7.704054E3],"tree_param":{"num_deleted":"0","num_feature":"43","num_nodes":"31","size_leaf_vector":"1"}},{"base_weights":[1.1498535E-3,-2.283001E-1,6.298162E-2,-4.5484766E-1,-1.8301828E-1,-1.2542629E-2,1.755534E-1,-3.68827E-1,-6.6016316E-1,-2.4385859E-1,-3.544595E-2,-6.507091E-2,8.610032E-2,5.0076902E-2,2.3547839E-1,-2.0175733E-2,-1.5835458E-3,-2.0584166E-2,-3.6009442E-2,-8.019428E-3,-1.5751874E-2,-3.7728995E-3,1.5699392E-2,2.6173352E-3,-5.4155155E-3,8.337016E-3,-1.2806248E-3,6.5872543E-3,-2.9021385E-3,1.4476103E-2,3.4287919E-3],"categories":[],"categories_nodes":[],"categories_segments":[],"categories_sizes":[],"default_left":[0,0,0,0,0,0,0,0,0,0,0,0,0,0,0,0,0,0,0,0,0,0,0,0,0,0,0,0,0,0,0],"id":35,"left_children":[1,3,5,7,9,11,13,15,17,19,21,23,25,27,29,-1,-1,-1,-1,-1,-1,-1,-1,-1,-1,-1,-1,-1,-1,-1,-1],"loss_changes":[4.5312197E3,6.954165E2,2.1389792E3,1.9920898E2,5.0731665E2,7.8019867E2,7.5955786E2,9.309204E1,4.941858E1,2.3766089E2,2.3066844E2,4.9883853E2,4.713331E2,2.8832217E2,6.166504E2,0E0,0E0,0E0,0E0,0E0,0E0,0E0,0E0,0E0,0E0,0E0,0E0,0E0,0E0,0E0,0E0],"parents":[2147483647,0,0,1,1,2,2,3,3,4,4,5,5,6,6,7,7,8,8,9,9,10,10,11,11,12,12,13,13,14,14],"right_children":[2,4,6,8,10,12,14,16,18,20,22,24,26,28,30,-1,-1,-1,-1,-1,-1,-1,-1,-1,-1,-1,-1,-1,-1,-1,-1],"split_conditions":[1.049E1,6.92E0,4E0,9.85671E0,7E0,3E0,2E0,1.7E1,3.5E1,6.1E4,6E1,4.3E4,2E0,6.1E4,3E0,-2.0175733E-2,-1.5835458E-3,-2.0584166E-2,-3.6009442E-2,-8.019428E-3,-1.5751874E-2,-3.7728995E-3,1.5699392E-2,2.6173352E-3,-5.4155155E-3,8.337016E-3,-1.2806248E-3,6.5872543E-3,-2.9021385E-3,1.4476103E-2,3.4287919E-3],"split_indices":[2,2,4,34,22,25,25,23,10,6,1,6,20,6,20,0,0,0,0,0,0,0,0,0,0,0,0,0,0,0,0],"split_type":[0,0,0,0,0,0,0,0,0,0,0,0,0,0,0,0,0,0,0,0,0,0,0,0,0,0,0,0,0,0,0],"sum_hessian":[3.1938372E5,6.779654E4,2.5158719E5,1.1292161E4,5.650438E4,1.5057053E5,1.01016664E5,7.959979E3,3.332182E3,4.0009023E4,1.6495355E4,9.8251195E4,5.2319336E4,3.2650936E4,6.836573E4,7.217249E3,7.4273004E2,6.498694E2,2.6823125E3,1.8416094E4,2.1592932E4,1.4801311E4,1.6940453E3,2.6443367E4,7.180783E4,3.0385232E4,2.1934104E4,1.860069E4,1.4050247E4,5.1642844E4,1.6722883E4],"tree_param":{"num_deleted":"0","num_feature":"43","num_nodes":"31","size_leaf_vector":"1"}},{"base_weights":[1.0669306E-4,-2.1655853E-1,5.8428064E-2,-5.1855826E-1,-1.8280841E-1,-4.7887545E-2,1.2609655E-1,-4.21162E-1,-6.5655696E-1,-2.400706E-1,-4.269085E-2,2.285264E-2,-1.3864133E-1,1.9540647E-1,2.1002213E-2,-2.4690198E-2,-7.180082E-3,-3.4887515E-2,-9.627617E-3,-3.0838042E-3,-1.3946426E-2,-6.292707E-3,6.62955E-3,-6.911418E-3,3.7438616E-3,-1.292749E-2,-3.7639346E-3,2.1776739E-3,1.2386062E-2,-8.174879E-3,3.5470661E-3],"categories":[],"categories_nodes":[],"categories_segments":[],"categories_sizes":[],"default_left":[0,0,0,0,0,0,0,0,0,0,0,0,0,0,0,0,0,0,0,0,0,0,0,0,0,0,0,0,0,0,0],"id":36,"left_children":[1,3,5,7,9,11,13,15,17,19,21,23,25,27,29,-1,-1,-1,-1,-1,-1,-1,-1,-1,-1,-1,-1,-1,-1,-1,-1],"loss_changes":[4.03057E3,6.8942676E2,1.8080574E3,9.111536E1,4.8822363E2,6.2753876E2,1.1186362E3,8.035895E1,5.3606934E1,2.9942725E2,2.573709E2,4.6034705E2,3.2529395E2,7.351538E2,5.623509E2,0E0,0E0,0E0,0E0,0E0,0E0,0E0,0E0,0E0,0E0,0E0,0E0,0E0,0E0,0E0,0E0],"parents":[2147483647,0,0,1,1,2,2,3,3,4,4,5,5,6,6,7,7,8,8,9,9,10,10,11,11,12,12,13,13,14,14],"right_children":[2,4,6,8,10,12,14,16,18,20,22,24,26,28,30,-1,-1,-1,-1,-1,-1,-1,-1,-1,-1,-1,-1,-1,-1,-1,-1],"split_conditions":[1.049E1,6.49E0,2E0,9.550448E0,7E0,6.1E4,2E0,8E0,2.472E1,4.1E4,1E0,2.142E2,4.3401E2,2.5096E2,1.29E1,-2.4690198E-2,-7.180082E-3,-3.4887515E-2,-9.627617E-3,-3.0838042E-3,-1.3946426E-2,-6.292707E-3,6.62955E-3,-6.911418E-3,3.7438616E-3,-1.292749E-2,-3.7639346E-3,2.1776739E-3,1.2386062E-2,-8.174879E-3,3.5470661E-3],"split_indices":[2,2,25,34,22,6,20,22,7,6,40,3,3,3,7,0,0,0,0,0,0,0,0,0,0,0,0,0,0,0,0],"split_type":[0,0,0,0,0,0,0,0,0,0,0,0,0,0,0,0,0,0,0,0,0,0,0,0,0,0,0,0,0,0,0],"sum_hessian":[3.189678E5,6.764869E4,2.5131912E5,6.7987114E3,6.0849973E4,9.77469E4,1.5357223E5,3.988074E3,2.8106375E3,4.3196176E4,1.7653799E4,5.493065E4,4.2816246E4,9.254064E4,6.1031586E4,3.160216E3,8.2785785E2,2.5809983E3,2.2963916E2,7.726558E3,3.5469617E4,1.1973295E4,5.6805034E3,1.3409589E4,4.1521062E4,1.4801871E4,2.8014375E4,2.371255E4,6.882809E4,1.3000188E4,4.80314E4],"tree_param":{"num_deleted":"0","num_feature":"43","num_nodes":"31","size_leaf_vector":"1"}},{"base_weights":[2.5618891E-3,-7.249033E-2,1.6483952E-1,-5.7109697E-3,-2.0726915E-1,1.106846E-1,2.8687313E-1,-1.0993535E-1,5.49519E-2,-3.3764455E-1,-1.4640003E-1,4.481486E-3,1.6681485E-1,2.2693653E-1,4.2681006E-1,-2.9141158E-3,-1.320519E-2,7.8635913E-4,1.0831734E-2,-1.2401195E-2,-2.4035921E-2,-5.8726226E-3,-1.658465E-2,-6.3655586E-3,3.1380064E-3,4.756782E-3,1.3034235E-2,1.5377611E-2,6.095577E-3,2.3354365E-2,1.23531995E-2],"categories":[],"categories_nodes":[],"categories_segments":[],"categories_sizes":[],"default_left":[0,0,0,0,0,0,0,0,0,0,0,0,0,0,0,0,0,0,0,0,0,0,0,0,0,0,0,0,0,0,0],"id":37,"left_children":[1,3,5,7,9,11,13,15,17,19,21,23,25,27,29,-1,-1,-1,-1,-1,-1,-1,-1,-1,-1,-1,-1,-1,-1,-1,-1],"loss_changes":[3.8812998E3,1.9612141E3,6.659822E2,9.212569E2,5.728723E2,4.1611316E2,2.5970532E2,4.268742E2,5.841065E2,2.945027E2,2.6395654E2,1.8539803E2,3.0724976E2,1.8359497E2,6.712341E1,0E0,0E0,0E0,0E0,0E0,0E0,0E0,0E0,0E0,0E0,0E0,0E0,0E0,0E0,0E0,0E0],"parents":[2147483647,0,0,1,1,2,2,3,3,4,4,5,5,6,6,7,7,8,8,9,9,10,10,11,11,12,12,13,13,14,14],"right_children":[2,4,6,8,10,12,14,16,18,20,22,24,26,28,30,-1,-1,-1,-1,-1,-1,-1,-1,-1,-1,-1,-1,-1,-1,-1,-1],"split_conditions":[4E0,7.07E2,2.536E1,1.488E1,2E0,2E0,4E0,3E0,4E0,9.495895E0,1.0221578E1,8.24E1,1E0,8.941022E0,9.603126E0,-2.9141158E-3,-1.320519E-2,7.8635913E-4,1.0831734E-2,-1.2401195E-2,-2.4035921E-2,-5.8726226E-3,-1.658465E-2,-6.3655586E-3,3.1380064E-3,4.756782E-3,1.3034235E-2,1.5377611E-2,6.095577E-3,2.3354365E-2,1.23531995E-2],"split_indices":[4,30,7,7,4,25,25,20,25,34,34,26,40,34,34,0,0,0,0,0,0,0,0,0,0,0,0,0,0,0,0],"split_type":[0,0,0,0,0,0,0,0,0,0,0,0,0,0,0,0,0,0,0,0,0,0,0,0,0,0,0,0,0,0,0],"sum_hessian":[3.1867816E5,2.1790106E5,1.00777086E5,1.4570775E5,7.2193305E4,6.980264E4,3.0974447E4,5.3606332E4,9.210142E4,2.297617E4,4.921714E4,2.4136135E4,4.5666504E4,2.168789E4,9.286556E3,4.01543E4,1.3452032E4,7.412063E4,1.7980785E4,1.4128741E4,8.847429E3,4.256847E4,6.6486694E3,7.4001294E3,1.6736004E4,2.5895023E4,1.977148E4,1.226869E4,9.4192E3,7.585262E3,1.7012937E3],"tree_param":{"num_deleted":"0","num_feature":"43","num_nodes":"31","size_leaf_vector":"1"}},{"base_weights":[1.7325019E-3,-6.785017E-2,1.6721234E-1,3.0566912E-2,-1.6203941E-1,2.8629252E-1,7.229447E-2,-9.258807E-2,9.892471E-2,-2.210421E-1,-3.5539445E-2,4.2245534E-1,2.052361E-1,2.3795964E-2,2.5912303E-1,-1.1854179E-3,-1.1440065E-2,2.5203505E-3,1.2099366E-2,-9.030106E-3,-1.8737154E-2,-5.962121E-3,4.955238E-3,9.263048E-4,2.270822E-2,4.9378388E-3,1.5503988E-2,-1.6912388E-3,7.794335E-3,1.8002685E-2,6.9775144E-3],"categories":[],"categories_nodes":[],"categories_segments":[],"categories_sizes":[],"default_left":[0,0,0,0,0,0,0,0,0,0,0,0,0,0,0,0,0,0,0,0,0,0,0,0,0,0,0,0,0,0,0],"id":38,"left_children":[1,3,5,7,9,11,13,15,17,19,21,23,25,27,29,-1,-1,-1,-1,-1,-1,-1,-1,-1,-1,-1,-1,-1,-1,-1,-1],"loss_changes":[3.6632249E3,2.0761177E3,1.0644226E3,9.2205664E2,8.541572E2,4.609287E2,4.7483395E2,3.667866E2,4.8886157E2,4.8500488E2,4.1025754E2,1.9961938E2,2.92297E2,3.1667743E2,1.3029144E2,0E0,0E0,0E0,0E0,0E0,0E0,0E0,0E0,0E0,0E0,0E0,0E0,0E0,0E0,0E0,0E0],"parents":[2147483647,0,0,1,1,2,2,3,3,4,4,5,5,6,6,7,7,8,8,9,9,10,10,11,11,12,12,13,13,14,14],"right_children":[2,4,6,8,10,12,14,16,18,20,22,24,26,28,30,-1,-1,-1,-1,-1,-1,-1,-1,-1,-1,-1,-1,-1,-1,-1,-1],"split_conditions":[6E1,6.87E2,6.87E2,1.479E1,3E0,1E0,2.708E1,2E0,4E0,7.32E2,1E0,1E0,1.889E1,1E0,2E0,-1.1854179E-3,-1.1440065E-2,2.5203505E-3,1.2099366E-2,-9.030106E-3,-1.8737154E-2,-5.962121E-3,4.955238E-3,9.263048E-4,2.270822E-2,4.9378388E-3,1.5503988E-2,-1.6912388E-3,7.794335E-3,1.8002685E-2,6.9775144E-3],"split_indices":[1,30,30,7,25,20,7,20,25,30,40,22,7,40,20,0,0,0,0,0,0,0,0,0,0,0,0,0,0,0,0],"split_type":[0,0,0,0,0,0,0,0,0,0,0,0,0,0,0,0,0,0,0,0,0,0,0,0,0,0,0,0,0,0,0],"sum_hessian":[3.1813734E5,2.2396345E5,9.4173875E4,1.0952399E5,1.1443947E5,4.1769504E4,5.2404375E4,3.9092926E4,7.043106E4,7.803929E4,3.6400184E4,1.5584922E4,2.6184582E4,4.160526E4,1.0799112E4,2.596449E4,1.3128436E4,5.2595406E4,1.7835656E4,6.178525E4,1.6254038E4,2.2446314E4,1.395387E4,1.1345046E3,1.4450418E4,1.2991918E4,1.3192664E4,2.8969084E4,1.2636177E4,5.8549614E3,4.944151E3],"tree_param":{"num_deleted":"0","num_feature":"43","num_nodes":"31","size_leaf_vector":"1"}},{"base_weights":[4.2660066E-4,-6.672009E-2,1.6005342E-1,-2.1521981E-1,-1.0441331E-2,2.8738236E-1,7.634442E-2,-4.7763982E-1,-1.838986E-1,1.4378966E-2,-1.9870459E-1,2.4261191E-1,4.4826216E-1,3.5168055E-2,3.0217373E-1,-1.877794E-2,-3.1044617E-2,-1.3462464E-2,-5.4763886E-3,-1.2862398E-3,5.571583E-3,-2.80139E-2,-8.28457E-3,8.980693E-3,1.603071E-2,1.787269E-2,2.8388143E-2,5.458146E-3,-3.8200335E-3,2.2450373E-2,9.405433E-3],"categories":[],"categories_nodes":[],"categories_segments":[],"categories_sizes":[],"default_left":[0,0,0,0,0,0,0,0,0,0,0,0,0,0,0,0,0,0,0,0,0,0,0,0,0,0,0,0,0,0,0],"id":39,"left_children":[1,3,5,7,9,11,13,15,17,19,21,23,25,27,29,-1,-1,-1,-1,-1,-1,-1,-1,-1,-1,-1,-1,-1,-1,-1,-1],"loss_changes":[3.4032012E3,1.8678428E3,1.00202637E3,5.047666E2,7.5733673E2,2.684812E2,5.2745593E2,9.553247E1,3.4829578E2,5.573503E2,2.2525714E2,1.4330505E2,8.788013E1,3.9608618E2,1.4642517E2,0E0,0E0,0E0,0E0,0E0,0E0,0E0,0E0,0E0,0E0,0E0,0E0,0E0,0E0,0E0,0E0],"parents":[2147483647,0,0,1,1,2,2,3,3,4,4,5,5,6,6,7,7,8,8,9,9,10,10,11,11,12,12,13,13,14,14],"right_children":[2,4,6,8,10,12,14,16,18,20,22,24,26,28,30,-1,-1,-1,-1,-1,-1,-1,-1,-1,-1,-1,-1,-1,-1,-1,-1],"split_conditions":[6E1,1.049E1,6.1E4,6.49E0,1.0024067E1,8E0,2.739E1,9.536835E0,5E0,2.447E1,1.4738E2,1E0,1E0,3E0,2E0,-1.877794E-2,-3.1044617E-2,-1.3462464E-2,-5.4763886E-3,-1.2862398E-3,5.571583E-3,-2.80139E-2,-8.28457E-3,8.980693E-3,1.603071E-2,1.787269E-2,2.8388143E-2,5.458146E-3,-3.8200335E-3,2.2450373E-2,9.405433E-3],"split_indices":[1,2,6,2,34,24,7,34,22,7,3,40,40,20,20,0,0,0,0,0,0,0,0,0,0,0,0,0,0,0,0],"split_type":[0,0,0,0,0,0,0,0,0,0,0,0,0,0,0,0,0,0,0,0,0,0,0,0,0,0,0,0,0,0,0],"sum_hessian":[3.175078E5,2.2349548E5,9.4012336E4,6.1421934E4,1.6207355E5,3.728938E4,5.6722957E4,6.5478145E3,5.4874117E4,1.431958E5,1.8877758E4,2.9173373E4,8.1160063E3,4.7976383E4,8.746571E3,3.825444E3,2.7223704E3,2.5549709E4,2.9324408E4,1.0132668E5,4.186911E4,1.5780764E3,1.7299682E4,1.6140723E4,1.303265E4,4.613902E3,3.5021045E3,2.8845457E4,1.9130926E4,3.822722E3,4.9238496E3],"tree_param":{"num_deleted":"0","num_feature":"43","num_nodes":"31","size_leaf_vector":"1"}},{"base_weights":[-4.9067166E-5,-6.551131E-2,1.5573928E-1,6.505014E-3,-1.8773699E-1,2.4065448E-1,3.5456225E-2,-8.733816E-2,6.566962E-2,-1.3340719E-1,-3.3926302E-1,3.1157324E-1,1.3941702E-1,1.4041252E-1,-7.1136355E-2,2.093425E-3,-7.213281E-3,5.694347E-3,-2.4450668E-3,-8.482177E-3,3.3629783E-3,-2.1502314E-2,-1.0738347E-2,-4.536241E-3,1.6885864E-2,8.745314E-3,-2.2917802E-3,4.2443625E-3,1.401691E-2,-2.2137886E-2,-2.2071411E-3],"categories":[],"categories_nodes":[],"categories_segments":[],"categories_sizes":[],"default_left":[0,0,0,0,0,0,0,0,0,0,0,0,0,0,0,0,0,0,0,0,0,0,0,0,0,0,0,0,0,0,0],"id":40,"left_children":[1,3,5,7,9,11,13,15,17,19,21,23,25,27,29,-1,-1,-1,-1,-1,-1,-1,-1,-1,-1,-1,-1,-1,-1,-1,-1],"loss_changes":[3.2308665E3,1.9635295E3,9.5738257E2,7.793523E2,6.8081323E2,3.9444287E2,4.339802E2,3.9923746E2,4.7559882E2,4.4268896E2,2.4659985E2,3.398567E2,1.4882874E2,1.5183377E2,1.9304279E2,0E0,0E0,0E0,0E0,0E0,0E0,0E0,0E0,0E0,0E0,0E0,0E0,0E0,0E0,0E0,0E0],"parents":[2147483647,0,0,1,1,2,2,3,3,4,4,5,5,6,6,7,7,8,8,9,9,10,10,11,11,12,12,13,13,14,14],"right_children":[2,4,6,8,10,12,14,16,18,20,22,24,26,28,30,-1,-1,-1,-1,-1,-1,-1,-1,-1,-1,-1,-1,-1,-1,-1,-1],"split_conditions":[6E1,6.97E2,6.97E2,2E0,8.8E4,9.2640705E0,7.18E4,4.1E4,9.294406E0,4E0,1.075E1,5.7300997E0,1.045025E1,3E0,5.5E1,2.093425E-3,-7.213281E-3,5.694347E-3,-2.4450668E-3,-8.482177E-3,3.3629783E-3,-2.1502314E-2,-1.0738347E-2,-4.536241E-3,1.6885864E-2,8.745314E-3,-2.2917802E-3,4.2443625E-3,1.401691E-2,-2.2137886E-2,-2.2071411E-3],"split_indices":[1,30,30,25,6,34,6,6,34,25,2,34,34,25,26,0,0,0,0,0,0,0,0,0,0,0,0,0,0,0,0],"split_type":[0,0,0,0,0,0,0,0,0,0,0,0,0,0,0,0,0,0,0,0,0,0,0,0,0,0,0,0,0,0,0],"sum_hessian":[3.168038E5,2.230703E5,9.373352E4,1.4036633E5,8.270398E4,5.4944105E4,3.8789418E4,5.427626E4,8.609006E4,6.0877992E4,2.1825986E4,3.2308977E4,2.2635129E4,1.9544564E4,1.9244855E4,1.6599994E4,3.7676266E4,6.059049E4,2.5499574E4,5.1566312E4,9.31168E3,1.2620551E4,9.205436E3,1.9713799E3,3.0337598E4,1.8996066E4,3.6390625E3,1.3993338E4,5.5512256E3,1.3021863E3,1.794267E4],"tree_param":{"num_deleted":"0","num_feature":"43","num_nodes":"31","size_leaf_vector":"1"}},{"base_weights":[-3.5848396E-3,-8.582712E-2,1.0679493E-1,-3.2292765E-2,-2.097359E-1,8.42559E-2,3.8227305E-1,-6.543357E-2,1.9303155E-1,-4.1191894E-1,-1.6201939E-1,2.1283416E-2,1.6841416E-1,3.2927978E-1,6.0683423E-1,-7.376806E-3,3.4614113E-5,1.4906177E-2,4.822327E-3,-1.149719E-2,-2.5582781E-2,-1.0670214E-2,-1.7396568E-3,4.7195996E-3,-3.604044E-3,1.0980687E-2,1.1352428E-3,-1.4381646E-2,1.7149068E-2,3.5341434E-2,2.5210012E-2],"categories":[],"categories_nodes":[],"categories_segments":[],"categories_sizes":[],"default_left":[0,0,0,0,0,0,0,0,0,0,0,0,0,0,0,0,0,0,0,0,0,0,0,0,0,0,0,0,0,0,0],"id":41,"left_children":[1,3,5,7,9,11,13,15,17,19,21,23,25,27,29,-1,-1,-1,-1,-1,-1,-1,-1,-1,-1,-1,-1,-1,-1,-1,-1],"loss_changes":[2.8666072E3,1.200326E3,8.371024E2,9.436064E2,5.266201E2,6.6049304E2,1.21141846E2,5.980686E2,1.6443158E2,1.8906543E2,2.8875867E2,4.8660727E2,3.9793994E2,6.984967E1,1.9611328E1,0E0,0E0,0E0,0E0,0E0,0E0,0E0,0E0,0E0,0E0,0E0,0E0,0E0,0E0,0E0,0E0],"parents":[2147483647,0,0,1,1,2,2,3,3,4,4,5,5,6,6,7,7,8,8,9,9,10,10,11,11,12,12,13,13,14,14],"right_children":[2,4,6,8,10,12,14,16,18,20,22,24,26,28,30,-1,-1,-1,-1,-1,-1,-1,-1,-1,-1,-1,-1,-1,-1,-1,-1],"split_conditions":[1.446E1,7.12E2,2.399E1,6E1,7.39E0,3E0,2.657E1,2E0,2E0,8.408939E0,6E1,6.1E4,3E0,1.2187E2,8.678291E0,-7.376806E-3,3.4614113E-5,1.4906177E-2,4.822327E-3,-1.149719E-2,-2.5582781E-2,-1.0670214E-2,-1.7396568E-3,4.7195996E-3,-3.604044E-3,1.0980687E-2,1.1352428E-3,-1.4381646E-2,1.7149068E-2,3.5341434E-2,2.5210012E-2],"split_indices":[2,30,2,1,2,25,2,25,20,34,1,6,20,3,34,0,0,0,0,0,0,0,0,0,0,0,0,0,0,0,0],"split_type":[0,0,0,0,0,0,0,0,0,0,0,0,0,0,0,0,0,0,0,0,0,0,0,0,0,0,0,0,0,0,0],"sum_hessian":[3.1577722E5,1.8095252E5,1.3482472E5,1.26360266E5,5.4592246E4,1.2462913E5,1.0195587E4,1.1015877E5,1.6201492E4,1.0422537E4,4.4169707E4,7.128814E4,5.3340992E4,8.250947E3,1.94464E3,4.9142145E4,6.101663E4,7.7580483E3,8.443443E3,3.6911445E3,6.731393E3,3.146198E4,1.2707726E4,3.9981086E4,3.1307055E4,3.9471074E4,1.3869918E4,1.7883679E2,8.0721104E3,9.820041E2,9.626359E2],"tree_param":{"num_deleted":"0","num_feature":"43","num_nodes":"31","size_leaf_vector":"1"}},{"base_weights":[-8.542431E-4,-1.7442589E-1,4.5121845E-2,-7.090969E-2,-2.4915025E-1,6.7233304E-3,1.8025537E-1,-1.1442778E-1,1.8397538E-1,-4.6068257E-1,-2.0486327E-1,-4.6411432E-2,1.02646545E-1,2.3365791E-1,3.5124127E-2,2.7312026E-3,-7.92745E-3,7.611293E-3,3.3800587E-2,-1.7818065E-2,-2.9235138E-2,-1.2681067E-2,-4.081553E-3,3.992041E-3,-4.230372E-3,1.0755593E-2,1.0173143E-3,8.724404E-3,1.8664313E-2,-9.83848E-3,3.6753733E-3],"categories":[],"categories_nodes":[],"categories_segments":[],"categories_sizes":[],"default_left":[0,0,0,0,0,0,0,0,0,0,0,0,0,0,0,0,0,0,0,0,0,0,0,0,0,0,0,0,0,0,0],"id":42,"left_children":[1,3,5,7,9,11,13,15,17,19,21,23,25,27,29,-1,-1,-1,-1,-1,-1,-1,-1,-1,-1,-1,-1,-1,-1,-1,-1],"loss_changes":[2.5197144E3,5.1144482E2,1.2952916E3,3.0751416E2,3.596499E2,9.907878E2,4.2809436E2,1.7662897E2,6.306018E1,8.579126E1,1.9078003E2,6.032663E2,6.413844E2,3.3353296E2,1.322714E2,0E0,0E0,0E0,0E0,0E0,0E0,0E0,0E0,0E0,0E0,0E0,0E0,0E0,0E0,0E0,0E0],"parents":[2147483647,0,0,1,1,2,2,3,3,4,4,5,5,6,6,7,7,8,8,9,9,10,10,11,11,12,12,13,13,14,14],"right_children":[2,4,6,8,10,12,14,16,18,20,22,24,26,28,30,-1,-1,-1,-1,-1,-1,-1,-1,-1,-1,-1,-1,-1,-1,-1,-1],"split_conditions":[1.049E1,8.526153E0,4E0,9E0,6.92E0,6E1,3E0,3.6648E4,6E1,9.85671E0,3E0,3.6648E4,6.1E4,6E1,7.2E3,2.7312026E-3,-7.92745E-3,7.611293E-3,3.3800587E-2,-1.7818065E-2,-2.9235138E-2,-1.2681067E-2,-4.081553E-3,3.992041E-3,-4.230372E-3,1.0755593E-2,1.0173143E-3,8.724404E-3,1.8664313E-2,-9.83848E-3,3.6753733E-3],"split_indices":[2,34,25,22,2,1,20,6,1,34,25,6,6,1,0,0,0,0,0,0,0,0,0,0,0,0,0,0,0,0,0],"split_type":[0,0,0,0,0,0,0,0,0,0,0,0,0,0,0,0,0,0,0,0,0,0,0,0,0,0,0,0,0,0,0],"sum_hessian":[3.1574594E5,6.612063E4,2.4962531E5,2.772078E4,3.8399855E4,1.9438998E5,5.523533E4,2.3678547E4,4.042233E3,6.646086E3,3.1753768E4,1.2509603E5,6.929395E4,4.0377426E4,1.4857901E4,4.9007876E3,1.877776E4,3.798441E3,2.4379185E2,3.6118245E3,3.0342612E3,2.2751031E4,9.002735E3,2.905551E4,9.604052E4,2.928021E4,4.001374E4,2.8361162E4,1.2016266E4,2.109456E3,1.2748445E4],"tree_param":{"num_deleted":"0","num_feature":"43","num_nodes":"31","size_leaf_vector":"1"}},{"base_weights":[-4.2948368E-4,-6.007217E-2,1.291373E-1,-4.927784E-3,-1.7301843E-1,-6.0975205E-2,1.6457021E-1,-8.26096E-2,6.312272E-2,-9.309893E-2,-2.5238478E-1,-2.963113E-1,-1.4721189E-2,2.0779417E-1,1.2833386E-2,-2.0042197E-3,-1.0471708E-2,1.4249224E-3,1.007265E-2,-6.530495E-3,1.1754415E-3,-1.9452868E-2,-9.090552E-3,-6.2396396E-3,-2.3323296E-2,6.0166996E-3,-4.31112E-3,8.987261E-3,1.8912794E-2,-2.2506002E-2,2.1348465E-3],"categories":[],"categories_nodes":[],"categories_segments":[],"categories_sizes":[],"default_left":[0,0,0,0,0,0,0,0,0,0,0,0,0,0,0,0,0,0,0,0,0,0,0,0,0,0,0,0,0,0,0],"id":43,"left_children":[1,3,5,7,9,11,13,15,17,19,21,23,25,27,29,-1,-1,-1,-1,-1,-1,-1,-1,-1,-1,-1,-1,-1,-1,-1,-1],"loss_changes":[2.437495E3,1.3452921E3,6.697783E2,7.6723553E2,4.494358E2,1.7003061E2,5.496658E2,3.6550488E2,3.7053818E2,1.5444516E2,3.4285034E2,7.482391E1,1.2608599E2,3.1180078E2,2.5692032E2,0E0,0E0,0E0,0E0,0E0,0E0,0E0,0E0,0E0,0E0,0E0,0E0,0E0,0E0,0E0,0E0],"parents":[2147483647,0,0,1,1,2,2,3,3,4,4,5,5,6,6,7,7,8,8,9,9,10,10,11,11,12,12,13,13,14,14],"right_children":[2,4,6,8,10,12,14,16,18,20,22,24,26,28,30,-1,-1,-1,-1,-1,-1,-1,-1,-1,-1,-1,-1,-1,-1,-1,-1],"split_conditions":[4E0,7.07E2,2.449E2,1.709E1,6.63E4,9.455E1,9.05E4,3E0,4E0,3E0,2E0,8.112528E0,3.4E4,6E0,1E0,-2.0042197E-3,-1.0471708E-2,1.4249224E-3,1.007265E-2,-6.530495E-3,1.1754415E-3,-1.9452868E-2,-9.090552E-3,-6.2396396E-3,-2.3323296E-2,6.0166996E-3,-4.31112E-3,8.987261E-3,1.8912794E-2,-2.2506002E-2,2.1348465E-3],"split_indices":[4,30,3,7,6,3,6,20,25,25,4,34,6,4,24,0,0,0,0,0,0,0,0,0,0,0,0,0,0,0,0],"split_type":[0,0,0,0,0,0,0,0,0,0,0,0,0,0,0,0,0,0,0,0,0,0,0,0,0,0,0,0,0,0,0],"sum_hessian":[3.1542062E5,2.1599398E5,9.942664E4,1.4513497E5,7.085901E4,1.5619691E4,8.380695E4,6.777147E4,7.73635E4,3.530756E4,3.5551453E4,2.564804E3,1.3054888E4,6.522617E4,1.8580781E4,5.0754445E4,1.7017021E4,6.187684E4,1.5486658E4,2.6713959E4,8.593599E3,1.210483E4,2.3446623E4,1.2781461E3,1.2866578E3,4.5188213E3,8.536066E3,5.6011676E4,9.214495E3,1.1250988E3,1.7455682E4],"tree_param":{"num_deleted":"0","num_feature":"43","num_nodes":"31","size_leaf_vector":"1"}},{"base_weights":[-1.1113163E-3,-5.6897517E-2,1.3213658E-1,-1.474444E-1,1.01858545E-2,6.795974E-2,2.5504294E-1,8.602175E-3,-1.98037E-1,7.792029E-2,-1.0059971E-1,2.7628783E-2,2.2793593E-1,1.3411897E-1,3.4376517E-1,-2.5322072E-3,6.4068246E-3,-1.7088665E-2,-7.883456E-3,2.403912E-3,1.1393619E-2,2.5698013E-4,-8.73129E-3,4.167479E-3,-5.3847763E-3,1.5953844E-2,6.2396578E-3,-1.2195547E-3,1.0434217E-2,1.5172362E-2,2.47208E-2],"categories":[],"categories_nodes":[],"categories_segments":[],"categories_sizes":[],"default_left":[0,0,0,0,0,0,0,0,0,0,0,0,0,0,0,0,0,0,0,0,0,0,0,0,0,0,0,0,0,0,0],"id":44,"left_children":[1,3,5,7,9,11,13,15,17,19,21,23,25,27,29,-1,-1,-1,-1,-1,-1,-1,-1,-1,-1,-1,-1,-1,-1,-1,-1],"loss_changes":[2.3391338E3,1.3473391E3,7.3248193E2,7.452566E2,9.5613995E2,3.936323E2,3.417273E2,1.636919E2,4.1357202E2,3.5382816E2,3.7841986E2,3.6743167E2,1.1543652E2,1.5936732E2,1.1145215E2,0E0,0E0,0E0,0E0,0E0,0E0,0E0,0E0,0E0,0E0,0E0,0E0,0E0,0E0,0E0,0E0],"parents":[2147483647,0,0,1,1,2,2,3,3,4,4,5,5,6,6,7,7,8,8,9,9,10,10,11,11,12,12,13,13,14,14],"right_children":[2,4,6,8,10,12,14,16,18,20,22,24,26,28,30,-1,-1,-1,-1,-1,-1,-1,-1,-1,-1,-1,-1,-1,-1,-1,-1],"split_conditions":[6E1,2E0,1E0,3.95E4,2E0,9E0,5E0,1E0,8.39E0,5E0,6.63E4,9.05E4,1.0160724E1,1E0,1E1,-2.5322072E-3,6.4068246E-3,-1.7088665E-2,-7.883456E-3,2.403912E-3,1.1393619E-2,2.5698013E-4,-8.73129E-3,4.167479E-3,-5.3847763E-3,1.5953844E-2,6.2396578E-3,-1.2195547E-3,1.0434217E-2,1.5172362E-2,2.47208E-2],"split_indices":[1,25,40,6,20,22,24,9,2,25,6,6,32,25,22,0,0,0,0,0,0,0,0,0,0,0,0,0,0,0,0],"split_type":[0,0,0,0,0,0,0,0,0,0,0,0,0,0,0,0,0,0,0,0,0,0,0,0,0,0,0,0,0,0,0],"sum_hessian":[3.146771E5,2.2181255E5,9.286453E4,9.4397195E4,1.2741535E5,6.100939E4,3.1855139E4,2.3111982E4,7.128521E4,7.9071336E4,4.8344016E4,4.872636E4,1.2283034E4,1.3482152E4,1.8372986E4,1.5453262E4,7.6587207E3,1.562882E4,5.565639E4,6.594826E4,1.3123082E4,1.9908098E4,2.843592E4,3.4514953E4,1.4211406E4,6.519796E3,5.763239E3,4.313417E3,9.168734E3,1.4496399E4,3.8765872E3],"tree_param":{"num_deleted":"0","num_feature":"43","num_nodes":"31","size_leaf_vector":"1"}},{"base_weights":[-9.291384E-4,-5.3647924E-2,1.2535368E-1,2.8288722E-2,-1.3284394E-1,2.295566E-1,4.3066565E-2,-4.2925388E-2,1.0740817E-1,-8.411024E-2,-2.4958651E-1,3.116589E-1,1.2753119E-1,1.5258023E-1,-2.2330338E-2,-1.093874E-2,-6.2777515E-4,9.038884E-3,1.6154748E-4,-7.0170662E-3,-1.9115207E-4,-3.6926295E-3,-1.5505507E-2,-2.2055209E-3,1.6598161E-2,1.3372311E-2,4.364906E-3,5.190264E-3,1.4624687E-2,1.5748417E-4,-1.3588078E-2],"categories":[],"categories_nodes":[],"categories_segments":[],"categories_sizes":[],"default_left":[0,0,0,0,0,0,0,0,0,0,0,0,0,0,0,0,0,0,0,0,0,0,0,0,0,0,0,0,0,0,0],"id":45,"left_children":[1,3,5,7,9,11,13,15,17,19,21,23,25,27,29,-1,-1,-1,-1,-1,-1,-1,-1,-1,-1,-1,-1,-1,-1,-1,-1],"loss_changes":[2.092133E3,1.4386315E3,7.935869E2,6.1396344E2,6.4136694E2,3.4203833E2,3.7038397E2,3.062689E2,3.945393E2,3.590758E2,3.5310303E2,1.6346802E2,1.0249124E2,1.3192383E2,2.0579704E2,0E0,0E0,0E0,0E0,0E0,0E0,0E0,0E0,0E0,0E0,0E0,0E0,0E0,0E0,0E0,0E0],"parents":[2147483647,0,0,1,1,2,2,3,3,4,4,5,5,6,6,7,7,8,8,9,9,10,10,11,11,12,12,13,13,14,14],"right_children":[2,4,6,8,10,12,14,16,18,20,22,24,26,28,30,-1,-1,-1,-1,-1,-1,-1,-1,-1,-1,-1,-1,-1,-1,-1,-1],"split_conditions":[6E1,6.87E2,6.87E2,6E0,8.1E4,2E0,6.1E4,4.525E3,8.580168E0,1E0,9.202409E0,1E0,5.6E4,7E0,6E0,-1.093874E-2,-6.2777515E-4,9.038884E-3,1.6154748E-4,-7.0170662E-3,-1.9115207E-4,-3.6926295E-3,-1.5505507E-2,-2.2055209E-3,1.6598161E-2,1.3372311E-2,4.364906E-3,5.190264E-3,